30 900
0.0412613765466988 0.0243719415810930 0.0306727567802410 -0.0764676782377018 -0.0709679968081872 -0.0212545566560066 0.0009438998613458 -0.0559577679792077 -0.0751979797068737 -0.0678759820350488 -0.0790730425315081 -0.0382615607355022 -0.0817364360255180 0.0595829823074443 0.0383956966715902 0.0598811450092490 0.0161240566451502 -0.0017891646126828 -0.0297321083870193 0.0464033699774337 0.0581124617226060 0.0448497193553541 -0.0600890746903981 -0.0602361303731097 -0.0573708994266526 -0.0133464378871582 0.0300641854683416 0.0394217981012364 -0.0666150233105303 -0.0706502004948148 0.0732100973606067 -0.0681955491423330 0.0414350842195806 -0.0391677454748223 -0.0534659026271532 0.0708165804903712 -0.0216972900517970 -0.0514479812511046 -0.0096030310639659 -0.0067969372609480 -0.0054961278066853 0.0645962481053263 -0.0022686421492680 0.0521622632506050 -0.0042028939902173 -0.0602655164031982 0.0830603992461441 0.0382500919536604 0.0281499617474164 0.0071133747672843 -0.0523373160439224 -0.0635911562323908 0.0072479551434866 0.0454034205491026 0.0374130815042824 0.0218056488919761 0.0046425976050701 0.0536083325396079 0.0399264812311878 0.0662569020701787 -0.0566563854078005 -0.0735632855816057 -0.0136931137618318 0.0516149569336784 0.0592782151435507 -0.0001003159576629 0.0399781040426799 -0.0561810008937461 -0.0384214709082283 0.0734161248625867 0.0770738542639354 0.0627958718998175 -0.0621018272360504 0.0653410765990042 0.0467330681839624 -0.0565454463913118 -0.0258196816164242 -0.0789599042705708 0.0513490854925748 0.0163422930411383 0.0580691999019796 -0.0454301635221110 -0.0115247669981247 0.0499565041629837 0.0732405188688391 0.0642420019641298 0.0504932440610348 0.0214812640312913 0.0094833928076681 0.0388989003794796 -0.0088027095282411 -0.0645893015175955 0.0496564446728380 -0.0091025501466613 -0.0225037206474132 0.0795189501738085 0.0713986428500144 -0.0616428423764144 0.0108336963200980 -0.0348307142340094 -0.0226182394471221 -0.0499306240920792 0.0173547905688400 -0.0010093333466727 0.0378692103530168 -0.0246548339426422 -0.0797462206712659 0.0768450820290803 -0.0248503938823540 -0.0189740795593357 0.0242751571477021 -0.0306615459480177 0.0458049956674950 -0.0254162158526598 -0.0598209081242457 -0.0712768339831376 -0.0446883044823685 0.0467389301820459 0.0115584593254097 -0.0243292155626007 0.0653653915270985 0.0182175761533427 -0.0464988898238627 0.0238162280677654 0.0732559442490311 -0.0639572496731191 -0.0607033755657184 0.0332955880051466 -0.0864019384721324 0.0294501829671693 0.0532986652640937 -0.0366763534804727 0.0063460247310119 0.0742969324253784 -0.0652799433756922 0.0217692314546889 -0.0195628947477037 -0.0404459014443524 0.0176624665906613 0.0352462625880988 -0.0529164211696817 -0.0706638698469959 0.0020673241985404 -0.0680702900667829 -0.0408877118382028 0.0540456780272991 -0.0287978404474216 -0.0649341892253178 -0.0524703334354821 0.0565208940288041 0.0755819644765884 -0.0776768027230197 -0.0324758428903710 -0.0761011656148788 -0.0364705639592349 0.0008863240368948 0.0059206417194123 0.0173320714601905 0.0179411399779898 0.0140581614475607 -0.0067003951591708 -0.0301144198324498 0.0293521691278242 0.0143388165553546 -0.0483252144289328 0.0274986996809561 -0.0414583547485799 -0.0527165456734743 -0.0467701541519688 0.0109951232860313 -0.0505164136758496 0.0591681851419415 -0.0147948647597959 0.0737878130351978 0.0339407326398618 -0.0240708259359460 -0.0577604366558462 -0.0757838166102982 -0.0353392924068776 0.0715252605533836 -0.0411076258894711 -0.0175565062582154 -0.0017843484318137 0.0001018285626325 -0.0786639087715506 0.0202462168284094 0.0235696693301201 0.0111061549192566 0.0058035737215080 -0.0242092901097493 0.0509871939756632 -0.0133040867123351 -0.0254280170879030 -0.0670551508332340 0.0707411450009098 0.0289306018743452 0.0109835743792364 0.0554450168835298 0.0113948635428644 0.0657118320344997 -0.0406684354571733 -0.0107321744603387 -0.0578349604173671 -0.0319712735811039 0.0787994470915098 0.0808928381945473 0.0571566569980025 -0.0823822041168642 -0.0286692601491266 0.0309477190533649 -0.0507334205278090 0.0125115102302329 0.0770635138234140 -0.0496166006280751 0.0335991246963935 -0.0073245798401529 0.0368375217127154 0.0804641467474876 0.0502832125943312 0.0210583371805345 -0.0202769673660773 0.0623558947979404 0.0769346840627194 -0.0162178276775902 -0.0531025281422834 -0.0260776002368314 0.0234482174247603 -0.0464745455875810 0.0412848974747050 0.0150350456396658 0.0106686392516655 -0.0661019485402324 -0.0374983131528343 -0.0312671396042892 0.0896187280882661 -0.0260969063318349 -0.0660956419492354 -0.0398467359518349 0.0079984180154382 0.0552176887289112 0.0636549736255112 -0.0523902413456091 0.0199304963129873 0.0213231565742420 -0.0233942366938699 0.0703739830876245 -0.0533208390239299 0.0674836079599561 0.0656925416300893 0.0872938594265165 -0.0184593946665696 -0.0608882497180309 0.0107953228154991 -0.0380698976217254 0.0176859162422882 -0.0249051140965813 0.0468866774910132 0.0233399698203927 0.0762310567474718 0.0132668692825734 -0.0146326025919002 0.0252559247316049 0.0472958675421524 -0.0509735862475247 -0.0400466292335293 -0.0592981301096484 0.0453414373217091 0.0176395097883746 -0.0373705445411602 -0.0792102931140660 -0.0404848119088480 0.0547552618061669 0.0216518247363512 -0.0249407091069528 0.0073441770249277 -0.0242696565011132 0.0540470949065895 -0.0403539400313486 0.0808913188640839 0.0266838527319577 0.0346323273394676 -0.0718185934415674 0.0290810387545465 -0.0613495359643621 -0.0476468252734966 -0.0774217946467056 0.0271369558073896 0.0700442443511143 -0.0527850538456603 -0.0211098695069434 -0.0507540740286290 -0.0081649783274170 -0.0549050623951224 0.0469203512709976 -0.0194662314139037 -0.0023885165676116 -0.0547326191343553 -0.0291934341119538 0.0459789170957869 0.0365877104989741 0.0517888325155399 0.0644359497477569 -0.0013108462111530 0.0050958083749894 0.0831820025986403 -0.0077702909415631 0.0498698762676378 -0.0646446845773783 0.0757301602827968 0.0478686635366897 0.0234082619388361 -0.0003361614743642 0.0522774059669631 0.0511946390461290 0.0210532273133157 -0.0825990358697258 -0.0836588124395451 -0.0746004336215476 0.0068345772348237 0.0118358625815026 0.0614377655031637 0.0582869938963673 0.0617327259196272 0.0310153073078954 -0.0340050586542214 0.0407628795062409 0.0275079730726059 0.0252919403576959 -0.0346540958708164 -0.0586784807403160 0.0691211929967717 -0.0163302416036794 0.0099035071871837 0.0065658757564515 0.0565328827263962 -0.0517068559151542 -0.0530655075056887 0.0055581021866723 -0.0708728638469913 -0.0235095848375632 0.0188178488159690 0.0690089551313884 -0.0216285459415645 0.0543790919438290 -0.0338165222517385 -0.0035351639526928 -0.0323124106181979 0.0707279144313600 -0.0343161852726226 0.0354319224380123 -0.0022436026319232 0.0709326641833213 0.0431410719526174 0.0548642533044700 -0.0238782077191037 -0.0175358225447937 -0.0255235702537717 0.0582356495723658 0.0604088871621179 0.0670086055017167 0.0606038477161565 -0.0091501262802528 -0.0218651737082954 0.0465108613543645 0.0399936654644678 -0.0684345869772834 -0.0113465398890436 -0.0660979834392399 -0.0214358433180507 0.0538195433285107 0.0391592784644728 -0.0225192978402747 0.0083128136390089 -0.0182704108096911 -0.0272727990939749 0.0622648819031872 -0.0683767364691461 0.0371396936801499 -0.0709022274198478 0.0884397783818522 0.0578463787041078 0.0431968187567488 -0.0206008114614737 -0.0127360871864496 -0.0362052346766529 0.0513906746776276 0.0350848260505146 0.0532857192595057 -0.0578904448379543 -0.0936450787386747 0.0778093915190354 0.0519612066189907 -0.0647196102203519 0.0153170523735994 -0.0621728940733225 0.0190125183770999 -0.0002048586113643 0.0166494513362674 -0.0587345436763522 0.0284365610755352 0.0155412150660459 0.0556495173415545 0.0385027319514206 -0.0216085827866226 0.0009678317601014 -0.0553223947381796 0.0476076207310698 -0.0581572064832160 -0.0160220264653545 -0.0414706088998292 0.0669072737773236 0.0068927614952314 0.0221263637992622 -0.0532336422892355 -0.0164148079546786 0.0327194810045866 0.0048446907662839 0.0587728556058250 0.0437281381473575 0.0617270027961977 -0.0131042886586838 -0.0446845692006617 -0.0189820004128908 0.0692141780044433 0.0417076464323574 0.0301483141133458 0.0343136986819996 -0.0660747724352480 -0.0383259090123113 0.0208545532763199 0.0358020367300938 -0.0048768463254469 0.0327404218256010 0.0382724397633354 0.0645698716910202 -0.0035246843091463 0.0224070161783323 0.0377380458999265 0.0097230806789923 0.0086473341445941 0.0266580618705044 -0.0726065332688242 -0.0244925011297651 0.0569357274457357 -0.0739714047645794 0.0616133988689060 -0.0225920497790528 0.0369225410390582 0.0828641318074743 -0.0271926540176815 0.0115774951351541 0.0552089040014713 -0.0061895937145898 -0.0767098231820454 0.0659696498112465 -0.0146943671462315 -0.0715160227479473 -0.0495152596987998 -0.0791303713346709 0.0330540840858874 -0.0439996265702060 -0.0084914126033779 0.0675632555758740 0.0264933818924292 0.0357350486095322 0.0836356455430192 0.0169754019385644 -0.0218151567361195 -0.0354080481804769 0.0191792874246048 -0.0228241039227724 -0.0228885095460811 0.0087137358881137 -0.0459911084598019 0.0421283766413225 0.0272260867083828 0.0418625348147118 -0.0555067246567689 -0.0531132912579738 0.0307315228497445 0.0649907678584843 -0.0201790680944165 0.0130081518119014 0.0100798330503521 0.0491558531729092 0.0266926341824801 -0.0658243571202090 0.0334683341113612 -0.0067116508207686 0.0369337837390049 -0.0660420923856631 0.0396732169811158 -0.0747913579148004 -0.0521537458924399 -0.0441067376639438 -0.0155851554053486 0.0436349417330065 0.0329502017464756 -0.0139005663667412 -0.0238503038001108 -0.0324305546245885 0.0830098168531821 -0.0068026349915797 -0.0523188744612811 -0.0352563497095253 -0.0118210926173664 0.0042785212629904 -0.0764473459940027 -0.0458508022926069 0.0526752021679400 -0.0806082105205644 0.0264490836875476 0.0687657690181886 0.0741015358043758 0.0417756801419082 0.0420326196551376 0.0616388821749783 0.0440508838898610 -0.0584918155327113 -0.0215816809308261 0.0575128071013842 -0.0768087223634906 -0.0505980827751114 -0.0102908525616485 0.0235873609435737 -0.0462551140533352 0.0017494775362614 0.0072702752302486 -0.0415292410654358 0.0617887487964025 0.0431648182767746 0.0541469994216547 -0.0512796279090383 0.0528326471960217 -0.0712788749593396 -0.0554539584154158 0.0709939675248721 0.0148736386808711 0.0552492118998778 -0.0599224694086562 -0.0365346379586875 0.0095142088005926 -0.0776687628322200 0.0744170579190308 0.0322335582848411 -0.0760677459073667 0.0519568401842181 -0.0312023971921317 0.0033222755051676 -0.0112230911214328 0.0525997598828735 -0.0777302881082251 -0.0319140182055448 -0.0330404862620510 0.0637030186772727 0.0591855472960930 -0.0440057563594414 -0.0517135147626928 0.0405980450437102 -0.0343754584654850 -0.0666836715026980 0.0191978237514522 -0.0493411375050212 -0.0761472679231525 0.0293441478304582 -0.0189481169944913 0.0354475684940743 0.0721619081752200 0.0463987772707133 0.0295803808279263 0.0128952044687649 0.0019174422594634 -0.0209978523438842 -0.0600685856612426 0.0832900067966501 0.0428368113602463 0.0294786409489997 0.0755491256987260 0.0204668435259007 0.0258060745579746 -0.0499127496065898 0.0709132509774690 0.0155982962855573 -0.0558653703378144 -0.0059280448066983 0.0472994730820217 -0.0312404397949839 -0.0318627060876255 0.0265945246768813 -0.0236162370553265 -0.0239480895747564 -0.0178267527801686 0.0674619268276698 -0.0351344340126584 0.0578855053144867 0.0319405052523469 -0.0697416305832368 0.0380990038075005 0.0235962295779225 0.0774035836453071 0.0336405159573371 0.0500452896710878 0.0498478074497358 0.0481792779491130 -0.0279213582462605 -0.0396409728967176 0.0094394138306359 0.0036222389565765 0.0382826358511379 -0.0603491442709636 0.0659118699459014 -0.0496372890765402 0.0709541860883933 0.0710955064758246 0.0286911857471256 -0.0665168784066712 0.0815592993400293 0.0763165989093130 -0.0477528588284040 0.0584907039174117 -0.0413376029183396 -0.0126725385547689 0.0361509519855367 0.0838434677233082 0.0271061564598164 0.0519010120010244 0.0112492393156870 0.0267224801504382 -0.0185209674361335 0.0486230755825910 -0.0004330704584692 -0.0169510964971883 0.0796348492443864 0.0857988040087806 0.0506299352438367 -0.0656530030663926 -0.0191622425059158 0.0465047628688449 -0.0140238465417733 -0.0093093073749994 -0.0247411395010428 0.0092732721998334 0.0224341017488919 -0.0016808081131041 0.0532227915937972 0.0015864525221194 0.0044321444473529 0.0825671555666096 -0.0352710977896225 0.0902826970681176 -0.0071019565970068 0.0348729949591826 0.0814793013961459 0.0442164528107660 0.0159759888895862 0.0771016884617273 -0.0470083205626077 0.0435968870599482 -0.0304002917683373 -0.0519489772939873 -0.0282470177238169 -0.0787140028029424 -0.0880097557202749 -0.0726607673883635 -0.0644064514720825 0.0176368896805566 -0.0041032215088471 -0.0581610846699081 0.0064282013680915 -0.0766090750430636 -0.0071960813094981 -0.0144674100836844 0.0660419340316099 0.0706222299377010 -0.0745686976993375 0.0241232531931724 0.0565541747907217 0.0272366623805530 -0.0159407677359514 0.0496321485902256 0.0405121644516645 0.0519770325008623 -0.0369341969027450 0.0261657802066061 0.0203608707420660 0.0277288185981814 -0.0085753806421930 0.0632740743272790 0.0093876749371111 0.0165035698043126 -0.0345710948154478 0.0619622115134769 0.0037281153296958 0.0630946366585361 0.0564885843414692 0.0092893663563382 -0.0270368756575173 0.0784652372824408 0.0186627998177170 -0.0693532087774110 -0.0181029253684419 0.0843515835934674 -0.0612043166878921 -0.0413192866442108 -0.0277088665017665 0.0421528246425877 0.0591229455648461 -0.0020591862627858 -0.0249655904810590 0.0212453736312442 0.0476182932310470 -0.0183871950577872 0.0512161424945737 0.0623448533093948 0.0556643776326175 0.0518752481600865 -0.0628826849029855 0.0147679540584392 -0.0213407099007941 -0.0515007845466210 -0.0595992017558954 0.0239020126752191 0.0868087556830549 0.0728297597098445 -0.0596978989390336 -0.0594018486332991 -0.0028232871700512 -0.0090310181245881 -0.0372925657862968 0.0242191252363338 0.0264995132979578 -0.0030562080387119 -0.0130493974455953 0.0535998275889305 0.0322449397026043 -0.0502998074011942 0.0599158284206597 -0.0732772632430464 0.0850820689204250 -0.0297677197468741 0.0235893417360379 -0.0460196539830985 0.0784149918618735 -0.0375381784183491 0.0429418265143258 -0.0650813812873868 -0.0634477954722086 0.0597607251824412 0.0235137267381048 -0.0536250930666622 -0.0001461322932508 0.0032247892918902 -0.0053439132167767 -0.0304690982731422 0.0611840334392888 0.0456156822572407 0.0370435367223751 -0.0479548269648051 0.0549904359645932 -0.0134672855993134 -0.0338866562063146 0.0458554967032529 -0.0532142450229790 0.0740037491208303 -0.0067022186510047 0.0291454356992010 -0.0644711144748882 0.0427612382512858 -0.0183745498561729 -0.0438343059260523 0.0359606759764286 0.0144567292169754 0.0200503098213730 0.0565197483845392 0.0562996899838742 -0.0234167522936388 0.0561997397570757 0.0812639346734365 0.0794118766226633 -0.0523060369063020 0.0351663007952603 0.0332520254053015 -0.0031501960186797 -0.0667474931825797 0.0351569745485490 0.0047196534283365 -0.0354484269863611 -0.0658146535390060 0.0226290486090140 -0.0124317809727691 -0.0772870282766529 0.0006320735390555 -0.0063054567516397 -0.0122569969937194 0.0600320703905080 0.0614790401228538 -0.0391473458823032 0.0790314796770023 -0.0537638390307070 -0.0107105963686858 0.0347267730645904 0.0250466852127825 -0.0636087357877088 -0.0336481867705692 0.0519210795605674 -0.0810012593392078 0.0565946611723857 -0.0045784943366596 -0.0119027550505224 -0.0345830416414117 -0.0459175375774909 -0.0837538446437806 -0.0196228990277100 -0.0318831094438046 -0.0406945715710480 0.0529471918429687 0.0589530310399898 -0.0247888211488939 -0.0212882223933809 0.0460830484428972 -0.0563335283963149 0.0251564539663416 0.0481358961988467 -0.0546763642920690 -0.0661002050229567 -0.0055916560935901 -0.0585857994048827 0.0008699611262193 -0.0546026045715030 0.0529475261928456 -0.0114838022165929 -0.0490195275609871 0.0541831889623660 -0.0591317527243422 0.0059042282024940 -0.0117412533650950 -0.0686038489696555 -0.0215168848328327 0.0259827505070042 0.0222777603723788 -0.0581575426860898 -0.0411045040759464 0.0742800783099076 -0.0512278498221518 -0.0000310640463773 0.0674323207999539 -0.0100427965609188 0.0634200811946527 -0.0693592554091990 -0.0569301095390314 0.0268150275707652 -0.0424463443629761 -0.0465386055075849 0.0051724035119698 0.0873354627999220 0.0745171239361757 -0.0342921213906260 0.0032017057201579 0.0087102237334137 0.0552565266474408 0.0199344186628643 0.0744541172867590 -0.0712434219135618 0.0515699183834366 0.0267365157344416 0.0277284866174799 -0.0634488473223398 0.0919406096846866 0.0425198032157454 -0.0554754836673213 0.0251590840613654 -0.0719428884260732 0.0075936227809518 0.0182266546632159 0.0440048613979672 -0.0177444740767365 0.0262737114392675 0.0810149489786233 0.0109322811243341 -0.0323973102238693 0.0129369249286827 0.0806425579789734 0.0243064384482093 0.0192656142475558 0.0068393754628832 0.0284860417425315 -0.0279781336969760 -0.0687808087169387 0.0497774781394879 -0.0176679978449304 0.0818136923002779 -0.0620016784112349 -0.0178176767811362 0.0214927523807066 0.0413450751964755 -0.0332106263431050 -0.0249939825943553 -0.0298345408185578 -0.0177474436413252 0.0852415761534383 
0.0820456075611371 -0.0602081506324963 -0.0227243982653785 -0.0610732087432242 0.0817540157432828 -0.0627261970412654 -0.0254647141475176 -0.0239351738621231 -0.0320380228265256 0.0235265483443315 0.0318320551402587 -0.0146554680780740 0.0068373892865288 0.0549186815337689 -0.0183594206750239 -0.0832060814808607 0.0271520008281912 0.0238957701940927 -0.0567582452074237 0.0699813875862643 0.0064911279100609 0.0107331737701186 -0.0032728958239143 -0.0754501076968981 -0.0184247180973627 -0.0606397295131614 0.0083472686636070 -0.0446364460848412 0.0459811986120367 -0.0792061131985807 -0.0429797986198852 -0.0656533364565419 0.0541300030332994 0.0631918544246421 -0.0129839884983333 -0.0638542075141164 0.0170935308626835 -0.0382250743905271 -0.0076001548599626 0.0280042226372449 -0.0022074620688743 -0.0214640665035723 0.0159701177013267 0.0454033129285022 -0.0593674306199740 0.0432685814121071 0.0040602491348126 -0.0283068940127973 0.0014367345637009 0.0108790808970464 -0.0420710554093861 -0.0149306237386152 0.0350506984040307 0.0131166487005028 -0.0178015578055013 -0.0442936627811001 0.0532685848972995 0.0292581560413249 0.0822421843626660 0.0001497490065997 -0.0378681441482494 0.0046952903760626 0.0309667578763798 -0.0689284410083907 0.0138502722874257 -0.0286101992413223 0.0020200018717043 0.0482051084135161 -0.0183776171229027 -0.0700097220305923 0.0064970955780195 -0.0299792628681179 -0.0109622825175170 -0.0845441585224669 0.0658400547040559 0.0184262076130448 0.0629195580411403 0.0844206443498488 -0.0359088414150805 0.0620422057666710 -0.0448857680519003 -0.0332512855559350 -0.0475360347100207 0.0653321319304215 -0.0289417339569597 -0.0399624567436757 -0.0547177475471304 0.0039023284695174 -0.0055815721774408 0.0014818473587680 0.0119885703335984 0.0660876844446036 0.0056733246386212 -0.0514677852437888 0.0537489314336897 -0.0053397229991021 0.0779642008290939 -0.0097254680664583 -0.0622434588970576 0.0395644504968159 -0.0278928889458651 -0.0078638096633089 -0.0109113321976106 -0.0376265114388507 -0.0398538203261693 -0.0590818188129314 0.0578464741582583 0.0053451426231967 -0.0036567887258309 0.0155609860607219 -0.0344004429698206 -0.0325866111008291 -0.0431501607785717 0.0753300063185282 0.0663480496283246 0.0088515155137794 0.0158334883023662 0.0151076156178890 0.0379038622529470 0.0851634119991267 0.0186544276922328 0.0839672109454448 -0.0206600862837102 0.0200612198804391 0.0368921172991897 -0.0155952031324407 0.0633211955489536 0.0255723148587826 0.0512342600506340 0.0624119625593176 0.0639047626643312 0.0544557780790323 -0.0215107169702505 0.0690067096891488 -0.0025588162730633 0.0141718602645472 -0.0129604644201346 0.0285593935738146 0.0577764846023840 -0.0326372795109716 -0.0263277588286426 -0.0777537018556773 -0.0177765449932859 -0.0570499249389599 -0.0842604758374661 -0.0076763446028680 -0.0810524018623439 0.0063731853514079 -0.0682519556811569 0.0312714414369417 0.0584123295383154 -0.0216159325717001 -0.0117333695500390 -0.0188635990164669 0.0317386691601974 -0.0216399876307325 0.0184887440463514 0.0041622034034571 0.0224147146093736 0.0389950566548261 0.0191667283007005 -0.0008705110382410 0.0043857113291856 -0.0302749261822490 0.0130422178768271 0.0378194881205293 0.0344494968951627 -0.0585774119143368 -0.0609865274582519 0.0725441236228127 -0.0758959697654065 -0.0111664917231402 -0.0363206794281589 0.0710001924887173 -0.0150523512537398 0.0331287063135822 -0.0033627383927701 -0.0731898287823605 0.0393369482080945 -0.0232000137026349 0.0123159190780138 -0.0708607456544528 0.0368164073996698 -0.0144956784981092 -0.0362031685364067 -0.0748378141466124 0.0270112840302008 -0.0733395573260242 0.0575965993585746 -0.0145471617736791 0.0602007748378004 0.0269791072182491 0.0540485528379885 -0.0215781567760334 -0.0626643033348613 0.0558908152703118 -0.0352223671240523 0.0103325023279104 0.0179841980204859 -0.0051032867451922 0.0443473138263255 -0.0322660666370874 0.0144416131409390 -0.0159863789209805 -0.0423165689480127 0.0128916289015631 0.0094954965492335 0.0173525445878082 -0.0392781380723935 -0.0274778167491184 -0.0561508507955491 0.0032475311202005 0.0347009750873872 -0.0186485327821270 0.0326622165285511 0.0614951641832377 0.0005370610220954 0.0098390776333639 0.0683342319873404 -0.0536748810040237 -0.0567046239099991 0.0148590136006761 0.0623945505059167 -0.0774224336701120 -0.0022920600237673 -0.0109145449168971 -0.0563471896976535 0.0421418975780401 0.0831476968084719 -0.0040821710720306 0.0471082986276335 0.0195537983525041 -0.0093998617406030 0.0757925835978503 -0.0285672611229084 0.0476597198479092 0.0761792257927541 -0.0405320019734979 -0.0243831561728105 0.0069100968404435 -0.0239097551916920 -0.0461870562540994 -0.0562369963564324 -0.0712821309867406 -0.0661803533250769 -0.0508750177833504 0.0356237351321705 -0.0671380335428553 -0.0143983147324681 -0.0557246421457178 -0.0206070924097021 -0.0408077413350509 0.0062106769784603 0.0474954537714207 0.0748278540188669 0.0622535521145323 -0.0326150864241845 0.0857399420957006 -0.0665812268406791 0.0035300506498397 -0.0135931722463708 0.0115152633316590 0.0208967535623573 0.0383612346013429 -0.0516526605733228 -0.0443452848730567 -0.0800665832579009 0.0301376926063456 -0.0319861262121007 0.0557252102174052 0.0186080345023652 -0.0337519303632949 0.0191635004124548 -0.0389744144093268 0.0591968470775968 0.0076608960210420 0.0675794079479208 -0.0317889961832664 -0.0803265924837785 -0.0654823913953716 -0.0688394392948198 -0.0463700687827620 0.0085783166859521 -0.0668649126716527 0.0573656938413420 -0.0060900360732556 0.0052647296569073 0.0617117923068602 0.0665819332706486 0.0620138163284498 -0.0064198333667490 0.0155724028286995 0.0081473825954900 0.0583247135638146 -0.0513839600624102 -0.0732698990468825 -0.0485174201093324 0.0500707376724420 -0.0121514293922855 0.0160578036492488 0.0181449719552250 0.0731360066989677 0.0579193392596593 0.0144389230580854 -0.0406010287769897 0.0202110079099983 0.0745084151364906 -0.0590814263394598 -0.0120923201551475 -0.0323272900675789 0.0474475243382727 0.0472083173816627 -0.0271046257279070 -0.0087917443238313 0.0965457487222121 -0.0123484900644123 0.0184564290044543 0.0679682958349457 0.0255520095771669 0.0723166833588419 -0.0334130180221019 0.0201644301234314 0.0786979574261594 0.0335156278745217 -0.0234429330316688 0.0955816233486537 0.0739864880431362 -0.0317225090680655 -0.0167408187445657 -0.0558111511757610 0.0258729721794670 0.0263536946796022 0.0388857714764427 0.0504901882163640 0.0395437258611605 0.0531395465341873 0.0641577682244888 0.0656175296797019 -0.0605835723901207 -0.0081712954798183 0.0415979020827839 0.0354513214879318 0.0609628723943073 -0.0714903469365258 -0.0485680277520271 0.0022964398539033 0.0400518552909290 0.0253363036605769 -0.0098785387139973 0.0502149777443565 -0.0550777362561415 0.0562985737896112 0.0215251972257166 0.0139914794541916 0.0827796234599424 0.0649971375549983 0.0118788836440090 0.0838788677153603 -0.0577919703677297 -0.0029970183688919 0.0070581519445154 -0.0026443373357922 -0.0694441963470911 -0.0577329409263278 0.0585822685920549 0.0540409430911371 0.0578817310599709 0.0282232762926050 0.0297091880009597 -0.0195090623575570 0.0539352947711427 -0.0167802683930908 -0.0331093613389762 -0.0199794038657855 0.0551234938182624 0.0246644401579532 0.0359069224817423 0.0713725259262963 -0.0384118777806232 0.0454036104859593 -0.0070958911276100 0.0311582283519821 -0.0361162385080343 0.0457398876116734 -0.0239188708047772 -0.0547645866237600 -0.0145884062276207 0.0377608702543058 0.0929961556536428 -0.0399409166632385 -0.0935386199333294 -0.0673718279799107 0.0373806593169273 0.0694710901373554 0.0399402426428765 0.0751734843679419 -0.0121435079629595 -0.0322914617881339 0.0234935281171109 0.0707551587278950 -0.0670543671013712 0.0213558337705740 0.0371661939962794 -0.0697007118739791 0.0612396440366869 0.0186784352234383 0.0026359766425807 0.0485398899714616 0.0377293846192932 0.0705942345053517 0.0024151773574355 0.0848832377738823 0.0457482655896838 -0.0679812678168642 0.0883806593535779 -0.0621872815296799 -0.0723864825888228 -0.0694551732061468 0.0677588181435981 -0.0492311528472067 -0.0291776151563131 -0.0571486187146446 -0.0628619578117895 -0.0509286047020949 -0.0617415946993959 -0.0014618432003010 0.0822505053897529 -0.0001503670374207 0.0618053785591783 0.0666408506689136 0.0477597523134615 0.0415718918198941 -0.0268141200358078 0.0472886904881836 -0.0719110606889755 -0.0211516183647376 -0.0437646072548429 -0.0384260794457892 0.0216306077166486 -0.0632377739197091 -0.0546909206435778 0.0187170947505449 0.0829519934819253 0.0678461007644231 0.0240351835470013 -0.0044856124701102 0.0722310542137702 0.0096266137550212 0.0245421095350784 -0.0632620642422141 0.0454329524435577 -0.0583558659138090 -0.0529400374412506 0.0788768180932855 0.0273469830336361 -0.0667552060194340 -0.0374880162864991 0.0073301718106481 0.0228614954990354 -0.0493151229139447 0.0415408772595624 -0.0701307628075364 -0.0234260552249206 0.0486525734366170 -0.0025550496389648 0.0612725279200628 -0.0595128193721057 0.0528598705384778 -0.0190521594694893 -0.0040623340723574 -0.0461423185644367 0.0103442689408748 0.0396624181257525 0.0233258017978948 0.0149979622756066 -0.0600362879410720 -0.0669074453047213 -0.0570876372926799 -0.0581858273618139 0.0844656111059475 -0.0336953661694316 -0.0182559371821501 0.0508901120250771 -0.0470052983901974 0.0722703544675390 -0.0610718969236238 -0.0704052597979707 -0.0166861676890094 0.0311353292315103 0.0163092053541154 -0.0299013719944593 -0.0496503467715700 0.0728724236373612 -0.0732420090787024 -0.0848439097053425 -0.0154403181510994 0.0106029901176186 0.0647109363803553 -0.0388338815762994 0.0823135868825239 0.0745952926294863 -0.0600570328142408 0.0528600135337215 -0.0647511672616808 0.0329876888278270 -0.0466580226209472 0.0769013546346549 0.0818041413112565 0.0418436780675796 0.0147683847153276 0.0103511662794312 0.0527167895701441 0.0107568783356590 0.0814202986415456 0.0089155428309396 -0.0060853964845613 -0.0103400094868107 -0.0196137780437054 0.0156039997044419 -0.0546847816619614 0.0323664825681174 -0.0084693337833178 -0.0304075720791185 0.0417479340832123 0.0348357244750909 -0.0134770005160151 0.0257347535877648 -0.0028042848476162 -0.0358839378841546 -0.0112257610597307 -0.0593298078746535 -0.0182009189242371 -0.0575156620464730 0.0380488565900664 -0.0351360364029043 -0.0155332459436167 0.0727316199805840 -0.0236459782490703 0.0135484811825540 -0.0636561908336684 -0.0139833235303241 -0.0409671627931226 -0.0306528423916265 -0.0105385915530465 0.0573899684248110 0.0061362073329321 0.0356471084888678 -0.0393594339844070 0.0472099700753228 -0.0729788856101690 0.0239876556073731 0.0502192245400499 0.0486146522446501 -0.0745014079724598 -0.0602073685386556 -0.0155267249495979 -0.0059226928927343 -0.0215902873367954 -0.0900976365124059 0.0263665414912859 0.0564750287335006 -0.0334241826084328 -0.0168844859936580 0.0430296421133898 0.0968032935601353 -0.0355204599183759 0.0671101714591121 0.0235936001928909 -0.0479495248086399 -0.0152903407687811 -0.0570614215855356 0.0804515141749969 -0.0012260527905319 0.0523249649202617 -0.0210980889903391 -0.0722200683971930 -0.0625317973961237 -0.0448127256037469 -0.0390069799187439 0.0022424650019204 0.0244371208653314 0.0455847634910788 -0.0571064941967103 -0.0619865240307435 0.0464499885735445 0.0513125138734829 0.0614927002778077 -0.0909493742291780 -0.0592097712079025 0.0290862476053936 0.0304980368473409 -0.0183070008839307 -0.0641997034090093 -0.0007849370418745 0.0555006168062858 -0.0660805640325240 -0.0459331795807732 -0.0140536145732076 -0.0494676802471507 -0.0846948387458559 -0.0299096028622032 -0.0090845036502179 0.0504486914998618 -0.0723809031252534 -0.0234469632819278 0.0423337905872306 0.0287035053138757 -0.0716732902937458 0.0257225817329641 -0.0151446529304897 -0.0731477642115225 0.0656448868820568 -0.0673695808841914 -0.0125243199467336 -0.0816423667554114 0.0230887008320731 0.0272852590086110 0.0112204430450555 -0.0700844227027372 -0.0951483935758989 -0.0693117927962238 -0.0713423195373310 -0.0562456004649226 0.0162498160454608 0.0219001530202680 -0.0673745115124395 -0.0099720413079616 0.0353751498113483 -0.0024582078983923 0.0856431569017033 -0.0269581040546462 -0.0648129021843736 0.0583960725307520 0.0693072888710293 0.0421809192242835 -0.0510018442513187 -0.0244611820488506 0.0640097568343395 0.0466007603890839 0.0209860604203458 0.0588719254921181 -0.0520861646417881 -0.0409330400087575 0.0513696974590170 -0.0392602389187468 -0.0577089469213244 -0.0296091217092000 -0.0286910590355740 -0.0762599250097471 -0.0602382623694799 -0.0656425738474525 -0.0651484638023073 0.0467189434469655 0.0220226349170522 -0.0519440334701213 -0.0796334968167915 0.0472308940969353 -0.0706726074319551 -0.0232772547184411 -0.0244105573877554 0.0315621704896904 -0.0636756146928157 -0.0396494320505978 0.0601992327947626 0.0099719042846170 0.0598341002180710 0.0352768267716991 -0.0139310581186179 -0.0212016793560459 -0.0333553315313274 0.0326814191315757 0.0562744830528810 -0.0538894772821701 0.0097329732491719 -0.0741313128097894 0.0294033921601864 0.0422709409596851 0.0087075192301627 0.0452800461702716 0.0502640870424417 -0.0458009136565201 0.0198274073727071 -0.0556785727176558 -0.0014376194203151 0.0790109673436447 0.0597116512565232 0.0046597633161729 0.0874364195988919 0.0068701202404684 -0.0742645689821673 0.0038134016389414 0.0600281633186294 0.0521342882055278 -0.0612071200681496 0.0563898686084997 0.0252857368819155 0.0187003819863028 -0.0318962308377002 0.0474704262511603 0.0253228541754271 0.0579797616991473 -0.0798536472847804 0.0297848127385867 -0.0117203675574144 -0.0966055630113582 0.0459155846056597 0.0598912071896609 -0.0337911567701831 -0.0098619993746429 0.0019881153842280 -0.0876723857143672 0.0371859675472642 0.0221270039016388 -0.0112135049740312 0.0228434499102095 0.0414241685110635 0.0259537494793509 -0.0155396456292712 0.0731585374417202 0.0148450692924118 0.0495297415486905 0.0438404810462969 0.0006295097337281 0.0656731324776637 0.0614077293760555 -0.0043885261022932 -0.0139635314451091 -0.0484917264005664 -0.0373991723856886 -0.0374325128342441 0.0227485646802200 -0.0692695934794418 0.0470559329235442 0.0345438789933032 -0.0027615451828527 -0.0163818422789086 -0.0393378714054520 0.0646322571719888 -0.0040313982274147 -0.0603243714980743 -0.0123617743077522 0.0664036177538776 -0.0765289451200920 -0.0767164014999315 -0.0337763652661495 -0.0783125232694709 0.0815202796626547 0.0847938111113843 0.0316417172932531 -0.0054135519450245 -0.0229497987834581 0.0079458939478916 0.0536797543239560 0.0026749644314687 0.0721347231300990 -0.0553965882616396 0.0177331653834583 -0.0633286910366011 0.0022226074517332 0.0131072303133691 0.0318610388364775 0.0344297497192149 0.0236773901735295 -0.0203769423594690 0.0529990922547231 0.0759937276181861 -0.0110348540837598 0.0284800753805205 -0.0128759286797733 -0.0831041426540096 -0.0472869642457000 -0.0615435435690998 0.0240314181497620 0.0642878736673182 -0.0399856920508279 0.0384667359547975 -0.0074864419571506 0.0352209656381013 0.0494618042985309 0.0082707750812730 -0.0595096091679826 0.0165144433987192 -0.0396975100865726 -0.0397794867193395 -0.0509361414318409 0.0264450141946785 -0.0646539925086024 0.0558075294795632 0.0687177178944499 -0.0366653669080676 0.0688360106410108 0.0196660914529451 0.0260502909104487 -0.0676232848771413 0.0725404988332890 -0.0225740388037419 0.0078682143205145 0.0466857676384208 0.0208417480887604 -0.0813909583821670 0.0537874507634096 0.0045878647995085 -0.0569489715844591 0.0618170920983728 -0.0203758852890739 -0.0761147269323570 -0.0136819317649088 0.0294552136752921 0.0156695787853258 0.0223987016610460 0.0715031023110052 0.0616343276678990 0.0210971533277541 -0.0751556211827877 0.0344751622699254 -0.0665259854250383 -0.0185723137645263 -0.0648817438014870 -0.0566653248661265 -0.0497249429817695 -0.0550742710929679 -0.0676994803913337 0.0058495829985606 -0.0485522479021723 -0.0427047283401918 0.0431320110371704 0.0624396943348972 -0.0268046503636253 -0.0573521555771474 -0.0545680807149245 0.0546684302007656 -0.0167575840842707 0.0128102805972943 -0.0707638741917313 0.0569273253440087 0.0140683157079868 0.0440936061075937 -0.0416910589267092 -0.0778510918192859 0.0362683214771013 0.0458674407689816 0.0573479855472163 -0.0219916390741825 0.0708942187613465 -0.0174704091660176 0.0543840408944036 0.0194297227687360 0.0550622799107214 0.0289467860075768 0.0056096583011074 0.0307806596589668 0.0048562141542193 -0.0116882765865931 -0.0149285735234661 -0.0710842457149128 0.0697084652550891 -0.0649442257270108 -0.0128450830935058 0.0628216552314234 -0.0593055508314327 0.0002968266287170 -0.0091310262365616 -0.0414610660788851 0.0663857905568571 0.0123556541859538 0.0229584866195294 0.0405535245858449 0.0152781233198471 -0.0819736645726357 -0.0165205117418603 0.0980028013124791 -0.0010240415030856 -0.0065603157201236 -0.0310818733378847 0.0330887628249642 -0.0643129703256386 -0.0367505997954604 -0.0678401938799788 0.0683285880549150 -0.0751632170732082 0.0523650637598246 -0.0194174080897542 0.0205504827354774 -0.0441132796328380 -0.0100177591840136 0.0769423686543918 -0.0268387149887667 0.0081642039800919 -0.0255706222922801 0.0510183132767691 0.0076413334123109 -0.0119659546027305 -0.0836381125344558 0.0129480975793807 -0.0376633726427541 0.0180609337814102 0.0030619342790660 -0.0425903120804459 0.0701482172002021 -0.0019439308274079 
-0.0729454360792643 -0.0461627363973166 -0.0099888122399263 0.0034345982454931 -0.0795400531746573 0.0629713557014607 0.0404990869712814 -0.0066219558927457 0.0496159705812182 0.0104784103853469 -0.0704110415943220 -0.0643325527193178 0.0744649576676412 0.0663066752913816 -0.0541875584697685 0.0018163248007113 0.0282432339274321 0.0108517768094277 0.0223676725394171 -0.0127750450088686 0.0837824842349939 0.0789341159693172 0.0639807622905189 0.0789986392710255 -0.0744296112509240 0.0762417050165552 -0.0098236931625656 0.0526607527194038 -0.0257107500766629 -0.0043705104067331 -0.0403394672156605 -0.0375238355517974 -0.0715192700509497 0.0391766503934481 -0.0694327250070822 0.0702721722251914 0.0443061163079541 0.0305854735208033 0.0755949690287066 0.0821832048053747 0.0579156204307321 -0.0689518480515544 -0.0214035441043704 -0.0068306107072299 0.0720450116257654 -0.0247805511341666 0.0051022212324586 0.0039484246653100 -0.0503189609699446 0.0492335201879337 -0.0637859935150480 -0.0473226469672890 -0.0482238613557387 0.0426303481062188 0.0100918891122939 0.0561747880440016 0.0681254068964493 -0.0329859807078494 -0.0401300638424073 -0.0372845112570907 -0.0337592371651849 -0.0872799812127092 0.0621173111746823 0.0288866705660117 0.0179149830557218 0.0624712870065168 -0.0163920791486673 -0.0478747509729756 0.0573708723400395 0.0021551435972673 0.0747042682983649 -0.0352271520468114 0.0081005047053527 -0.0294053006280512 0.0441876057978272 -0.0740749677718447 -0.0488183010538624 0.0629666342760015 0.0118439557628713 -0.0707549207954033 -0.0655274361086514 -0.0309045538759504 0.0583863269784096 -0.0677867933422915 -0.0309357367461788 0.0515375022186078 0.0651736125276581 0.0810214311632982 -0.0627004720107204 0.0318438930301427 -0.0685575594867924 0.0186311564105632 -0.0187551073965946 -0.0701047584498725 -0.0552556745004223 -0.0053945821793866 -0.0729665148709375 -0.0232563257128919 0.0591958760565623 -0.0060598270691093 0.0790914222160162 -0.0775229581864124 0.0319840045084180 0.0683348681467157 -0.0609920456496323 0.0179992979242031 -0.0136417766883102 0.0405796866236849 0.0583747092039692 -0.0438581501716714 -0.0503401587809704 -0.0269462878404046 0.0151712003967229 0.0108547762325973 -0.0496187857363907 0.0373497644773181 -0.0150945764516357 0.0031674338486319 -0.0158564415565052 -0.0440296627875636 0.0412199388131166 -0.0435003269106297 -0.0202813897102995 -0.0249214572612354 -0.0511757473902710 0.0517419736407187 0.0259242246202441 -0.0486406015676664 -0.0693922674073204 0.0013181029146178 -0.0651127048732268 0.0279425731898108 -0.0100473142486609 -0.0305421334771802 -0.0621269199911164 -0.0105080687738455 0.0346297492004942 0.0693016747561588 -0.0040710808187781 -0.0207401228148440 0.0294994141526760 0.0704878827947162 -0.0314050342060213 0.0783076082808885 0.0431664761843129 0.0079364131665425 -0.0321279008171674 -0.0106851082365803 0.0833868376556852 0.0597989483497886 0.0740704016485222 -0.0234844704507993 -0.0139179556614336 -0.0540348330841689 -0.0797668813092726 0.0413269053223907 -0.0115724720621033 0.0581251538974316 -0.0302539039827076 -0.0113259784750391 -0.0594550448122238 -0.0482918614574989 -0.0104543889617239 -0.0241941965291082 -0.0014492425995169 0.0616717368092896 -0.0075762799776336 -0.0788070276453296 -0.0528173694492777 0.0060749188526315 0.0177074833429310 -0.0316704567256453 0.0927481274525198 -0.0484866932926155 0.0017299799668986 -0.0631304619155111 0.0153329611684292 0.0282710042553802 0.0488852565106441 -0.0589630909637427 -0.0296909021070652 0.0306478044604586 0.0450071144888714 0.0026988745708502 0.0112660311971608 0.0296401185231339 -0.0213740177869733 0.0132011606022080 -0.0614820418329608 -0.0186570776815986 0.0030643767324658 0.0084489726317319 -0.0772991807789627 -0.0803290037967745 -0.0474564021955669 -0.0654762932822138 -0.0261536934094629 -0.1031157946064684 -0.0859280407197128 -0.0208186861231592 0.0426649028684017 0.0038935353708542 -0.0191113579312809 -0.0153393226220177 0.0850881674399426 -0.0439724793469639 -0.0844613604112001 0.0296730550466578 0.0333861813266514 0.0511539053027594 0.0332544938251341 0.0944440506682718 0.0872864565582604 -0.0615817962378219 -0.0074286195852223 0.0478422136480199 -0.0713928228792490 -0.0382768467626720 -0.0328662595894455 -0.0591907872684740 0.0019437541454163 -0.0402717622132930 -0.0298612476739143 0.0780549809781359 -0.0928634787759156 0.0071364740383433 -0.0187312919153296 -0.0182791372231142 0.0490536054218337 0.0189368304338388 -0.0371437284721710 0.0387938962950026 0.0545318672807457 0.0352899570530262 0.0606047515926226 -0.0044013498359698 0.0778950504111422 0.0319061807346204 -0.0139324330433023 -0.0838830440331177 0.0439559990824154 0.0490862521840394 0.0281806845950166 -0.0606534457341448 0.0472268279663470 -0.0129456387351857 0.0436426331170900 0.0809600512736772 -0.0608018070814335 0.0794465013535128 0.0188930220577637 -0.0210917964780301 0.0671048532636238 -0.0296896164327959 0.0498424913264945 -0.0408250911895051 -0.0730517135474493 -0.0678141674719470 -0.0246991447947154 -0.0331709955358363 0.0602983501447298 -0.0342891129926401 0.0275017282261595 0.0594579586843123 -0.0626402085051048 0.0318216679587661 -0.0507662253675148 -0.0395796676863500 -0.0421571242064393 0.0305009830254902 0.0394504819484573 0.0162815909580365 0.0836000423064664 0.0543504841631042 0.0760564661573999 0.0435255599766152 -0.0592080915196783 -0.0674625944077738 0.0566760065192251 0.0121421052884293 -0.0155789513359530 0.0156954523297470 0.0088667326958346 -0.0869157828922680 -0.0850571276275464 0.0377781350305154 -0.0091515181335538 -0.0101846077252449 -0.0654438545554371 -0.0092692501356535 -0.0049818213956289 0.0012425793287737 -0.0272648248343607 0.0112786831828627 -0.0719368824301613 -0.0749176583430357 0.0803419494412014 0.0444801480948710 -0.0341447050781309 -0.0572929944975787 -0.0496101048311601 -0.0167826439303396 -0.0253446593580218 -0.0607705663012421 -0.0653645811564770 -0.0727772967600478 0.0201312011205294 -0.0014450221294957 -0.0302516162798334 -0.0731451995298045 -0.0319418767551928 0.0189155027579265 -0.0882809151129296 0.0462129659079190 -0.0868051455336956 -0.0367510886811113 -0.0816839774319377 -0.0196128731778234 0.0192240663207187 -0.0043644721635203 -0.0341608364138835 -0.0391531854281546 -0.0761732275493353 0.0153769583599988 -0.0259943250417362 -0.0058991168241035 0.0363537855981296 0.0255516902450878 -0.0313328601999641 0.0075774895892739 -0.0466227726224214 -0.0232503705381362 -0.0341608861954011 -0.0009650041954223 -0.0374237910258655 0.0344637619263923 -0.0833381440429087 0.0487455519895354 -0.0164762577999889 -0.0625668197584948 0.0538919024526044 -0.0883041327343708 -0.0103473565846714 -0.0092693102057313 0.0065275267948567 -0.0909025565494656 0.0573756760471580 -0.0007111346047925 -0.0016056559328995 -0.0924910731850492 0.0260939538643544 -0.0101280448091382 -0.0026111952563857 -0.0606405452286506 0.0445946574911617 -0.0604792077331313 0.0320009552079294 0.0064016447275729 0.0566090164141905 0.0401704510160393 0.0537546354207224 -0.0246498731145384 0.0338468880491973 -0.0449054834193895 -0.0594297303505398 -0.1022154267939784 -0.0982809372780555 -0.0172143744563015 -0.0015095197222933 0.0235208051988836 -0.0329701329259249 -0.0662410326299993 -0.0373623180850044 0.0340265758356022 0.0672778096104578 -0.0737598811981761 0.0418183873919293 -0.0114890976118753 -0.0239180195630653 -0.0368409026792720 -0.0995233464227142 0.0102330303132032 -0.0161576015835942 -0.0173222249465637 -0.0555792380271614 -0.0652141963574501 -0.0490454725296261 0.1045425261112767 0.0510589091411870 -0.0082938436270572 0.0943545069829143 -0.0372050556001325 -0.0268371613766613 0.0502244243118010 -0.0615126350442979 -0.0303687943455169 0.0386629104986080 -0.0134247510443676 -0.0144003465825184 0.0380473095023215 -0.0221167174860780 -0.0870996419426463 0.0100437555762510 -0.0309758284847995 -0.0105185486528976 0.0584676559702963 -0.0788279932014062 -0.0152386715176914 -0.0596998822543912 0.0105150496444001 -0.0569376133057114 0.0157777937621245 0.0218344463443464 -0.0617553096295572 -0.0209207888417731 0.0428520605565978 -0.0243717785702382 -0.0091523192969614 -0.0392095620395749 0.0329571040944687 -0.0036702767912926 -0.0722400183521513 0.0148549696573743 -0.0938338276190761 0.0227541423304339 0.0096483600968867 0.0355727665571406 -0.0542331486474303 0.0125702343424663 0.0630659487275697 0.0656656552587627 -0.0083147588128360 -0.0638903093636588 0.0117877811370235 0.0424531242568735 -0.0428970081811366 -0.0536951567887609 -0.0672920819361538 -0.0556405815006054 -0.0175485538134840 0.0092077816383654 0.0235613793623865 -0.0714806084179996 0.0468588284309203 0.0046883502298736 -0.0185376098144982 0.0255438935702245 -0.0483348086756325 0.0748526772157311 0.0172298656637293 0.0134684823346344 -0.0004551966065666 -0.0228249497107505 -0.0924894609990869 0.0266397323447194 -0.0458533688745906 -0.0184000449253202 0.0054119215126779 0.0046545754529439 0.0239730380455387 -0.0299136197718421 0.0097893344399220 0.0635012635204966 -0.0466433572698799 -0.0656623443610848 0.0180304889539733 -0.0136777099130022 -0.0031929200772860 -0.0431048404950709 0.0093936788875964 -0.0333247539993145 -0.0557520989428605 0.0606639560996301 -0.0476626956010698 -0.0358511512541723 -0.0666877642813318 -0.0464212538787509 0.0215823711458741 -0.0158834236725598 -0.0246284353705460 -0.0306272755223798 -0.0400704057233463 -0.0358415054614858 0.0006634249547954 -0.0138085874704565 0.0064603188934715 0.0529151413393520 -0.0554227915555742 0.0296770514410968 -0.0048318984547403 -0.0275738144835394 -0.0833039252785298 0.0433776764859394 0.0060685608508031 -0.0437121899585782 -0.0523540544032580 0.0096513434518902 -0.0068258469244398 -0.0651654085744521 -0.0808994397338688 0.0402977789772877 -0.0568431768650047 -0.0210437870976383 -0.0893755751614144 -0.0675908944982494 -0.0764948759802188 -0.0510919885120996 -0.0199779138280947 -0.0848053598247559 -0.0352998644652774 -0.0612377914847083 -0.0549294701847982 -0.0266912176165116 -0.0107148185603047 -0.0014388296491714 0.0258603731684512 -0.0482057412987869 -0.0255372964013833 -0.0520332311612979 0.0083511946394635 -0.0140406419996283 -0.0135129158250276 0.0694115432026598 0.0060462253818063 0.0514336379020479 0.0764912276618882 -0.0272286707254975 -0.0559853421483862 0.0325945343308040 0.0120707616971178 0.0639397866707550 0.0169203163398299 -0.0775202280701092 0.0459583752585370 -0.0614548057716018 0.0338593823656212 0.0001155394887810 -0.0389820725469519 -0.0543868326901973 0.0204114073973094 0.0068635869187239 0.0139780128071116 -0.0006536232510613 -0.0780453055163378 0.0209344453838710 -0.0535036376211180 -0.0127920647379079 0.0720020998046336 -0.0356103627104752 0.0246718516974746 -0.0744971244096843 0.0534130244249748 -0.0685659594805058 -0.0735900410291083 -0.0346100538549034 -0.0606355421008067 -0.0382000134569332 0.0308937382450139 0.0780169731437848 -0.0549755997552642 -0.0389440183961766 0.0372409849696642 0.0582308063224590 -0.0430645377305825 -0.0183887405140658 -0.0779556437390140 -0.0320880380977722 -0.0014034673250527 -0.0196163936335874 0.0900325862103450 -0.0318059578781468 -0.0681945543900806 0.0894798972336546 -0.0644682866813313 0.0045163016584326 0.0428361539116327 -0.0064124842703102 -0.0136188640709277 0.0726376089433974 0.0063004488410687 0.0908438666709421 0.0938723300260157 0.0321940178200672 -0.0151174845954562 -0.0150318206620229 0.0484047882508920 0.0527703788499756 0.0626046448615987 0.0128959838820545 0.0260306345346979 -0.0238749997619630 0.0790648180885881 -0.0134562949743349 0.0825377753613313 -0.0451920936171822 -0.0758149415413075 -0.0571166425175094 -0.0519113389028184 0.0414164579810407 -0.0630391582500762 -0.0479524392825871 -0.0031337671184316 0.0376614427271592 0.0212327079772114 0.0527525125333340 -0.0484992664885180 -0.0429889447423996 -0.0412160220856761 0.0659019856764018 -0.0381623664404469 0.0239726053259975 -0.0494223820825134 0.0108967616747284 -0.0286653574485928 0.0336417900217858 -0.0178843728984555 0.0291214046058959 0.0126640625644971 -0.0777914770419945 0.0866795796578501 0.0067936737210280 -0.0488146578278221 -0.0409128519671456 -0.0087464538895595 0.0699808794627877 0.0564351540027705 -0.0521514065039927 -0.0637215917292549 0.0463617929178300 -0.0073216184092493 -0.0638408717602871 0.0424943927349330 -0.0199093715073465 0.0388014593499231 0.0525005573460813 0.0623703460318229 0.0751298118045108 0.0119587313867924 0.0361126009319961 -0.0675950155486886 0.0171578495828858 0.0160995557205044 -0.0804012687690924 -0.0414182196910672 -0.0253274895263308 0.0374084855729239 -0.0380493431703833 0.0278289799445702 0.0401649155538491 0.0674258442443264 -0.0400036740620419 0.0943991898849161 -0.0180204713864839 0.0106617316965742 0.0403385036009373 -0.0618067567526881 -0.0758289123339097 -0.0588004716480238 -0.0308479292711340 -0.0029208310895255 -0.0235123419147024 -0.0378393711811800 0.0262718808264128 0.0104269305818103 -0.0135538315517691 0.0477019146504107 0.0341809965779579 -0.0459337740731712 0.0585770699794608 -0.0431412247898423 0.0743630561481178 0.0680351493294977 0.0243256393367420 0.0260369981066138 0.0490495908257668 0.0584607496454988 -0.0294741574375558 -0.0633714990446731 0.0801951451927467 -0.0633069621082284 0.0399263530704898 -0.0151681952078957 0.0405736780799130 0.0821836274247234 -0.0529023768834256 -0.0249350982111230 -0.0925437523349065 0.0056805541313493 -0.0661548815695246 -0.0123373040619908 -0.0434718939043025 0.0264963575195388 -0.0421372074390228 -0.0423868894133666 -0.0332953349957672 0.0879021586172240 0.0693025203966458 -0.0482714401875700 -0.0804604924089211 -0.0294829927677135 -0.0413273380820749 -0.0350756408964210 0.0223907478199521 -0.0289511398865808 -0.0328822614053808 -0.0188872460406402 0.0409395372605414 -0.0602942896794512 0.0301067590556405 0.0262101862441163 -0.0301099146166509 0.0692977506515872 0.0544998684080020 -0.0652443845898725 -0.0595536841652840 0.0127397942162884 0.0050149038667435 -0.0342940949009359 0.0298861411632259 -0.0175846325238939 -0.0648073714153092 -0.0608435721365301 -0.0522699926210066 0.0527011246900033 -0.0775885712990136 0.0487089076306249 0.0237182735872981 0.0376377972305066 0.0681273029538910 -0.0637802288934007 0.0328525378112607 -0.0566958904579247 0.0339530917849099 -0.0124707099188625 -0.0554818323206313 -0.0131370438843615 -0.0847464595661171 0.0369853278275575 -0.0267420070079690 0.0434279289446419 0.0900647180271724 -0.0622017365834153 -0.0086615020779446 0.0284894666350515 -0.0062099050373478 -0.0015590270512363 -0.0165443189017746 0.0525912924933993 0.1112510833696530 -0.0602505984460418 -0.0013158631248366 0.0308419333710780 0.0614942049624951 -0.0965300550020366 0.0433412052255569 0.0187630594205577 0.0667668486295142 -0.0693295505889512 0.0302177191888225 -0.0072541265032530 -0.0815677681037675 0.0057246736526653 -0.0590943628376574 0.0189872764363777 0.0439791622673973 -0.0123151415257158 -0.0464254730186415 0.0395826427759846 -0.0078311984350781 0.0515029724431182 -0.0239130626353676 -0.0333489116576536 -0.0689932814374205 0.0235085513571444 -0.0097057499462615 0.0043622278308274 0.0316764249856621 -0.0598764545022050 0.0371432377278833 0.0513075416837718 -0.0019199757405324 0.0705313282674302 0.0414537756369886 -0.0494760827922695 0.0739141765759027 0.0533597383980939 0.0230372518343987 -0.0264240812552134 0.0199252229592152 -0.0616140823808524 0.0070870350539089 -0.0776660105905886 -0.0550405486278110 0.0266151868952359 -0.0726136397209991 -0.0725796831755106 -0.0958478363584879 -0.0810424273549895 -0.0069183205067543 -0.0556783828027629 -0.0197198844520567 0.0172282851182777 0.0641669508003424 0.0404333350637208 -0.0759066633792406 0.0605552394255996 0.0029181702332214 0.0489527671694944 -0.0779698370585941 -0.0633036315523474 -0.0800900885014414 -0.0596683939748994 -0.0444565839620162 -0.0686801436020953 0.0710788966690571 -0.0113419999452862 -0.0059120384172238 0.0479626039237358 0.0175239102730520 0.0090863450887940 -0.0517078492386779 -0.0153867377866797 0.0518430338865002 0.0624813297396648 -0.0620142684570941 0.0594400952171436 -0.0196884276466920 0.0723068382128780 -0.0303232735029106 -0.0697914777899496 -0.0340529252724910 -0.0833936816628645 0.0082466256556109 -0.0551422585025146 0.0529416667268015 -0.0715883631203036 0.0579765818266936 -0.0294452632863042 -0.0171735326453282 -0.0249257016670356 -0.0848653309912107 0.0313589617757298 -0.0379367685421665 0.0793112926288349 -0.0178402738358421 0.0912411716370918 -0.0452080590008779 0.0125289297541373 0.0101317127091456 0.0257080509212237 0.0762125107897247 0.0574848633209149 -0.0214364227324853 0.0264569321074715 0.0625082484319672 -0.0351561223069519 0.0097205337927686 0.0383225922435524 -0.0222605546723114 -0.0383173529972499 -0.0443413944004030 -0.0069260735388678 -0.0288945971499248 0.0175676506601688 -0.0356387105097411 0.0352334195924884 -0.0357009623865642 -0.0113373102293865 0.0527325364899106 0.0749045180987692 -0.0404780193798470 0.0457496432860959 -0.0727547920061473 -0.0409685546641845 0.0043426403251193 0.0437094742753798 -0.0495952042580166 -0.0113663304040014 0.0261546252710323 -0.0487194326198128 -0.0333543938547981 -0.0432483874620340 -0.0166295969056571 0.0222856430932958 0.0643662110150783 0.0622008570859523 -0.0092240292189425 -0.0562909495046689 -0.0838232053769475 0.0644341150794347 -0.0228865682735824 -0.0529385337892617 0.0749746298181419 -0.0105577073470113 0.0843154269853381 0.0114239425859052 0.0767873804201338 0.0605886425289456 -0.0186747705351445 0.0827482418924310 
0.0679934210343042 -0.0715747348394509 0.0334852986008924 0.0468749664988204 0.0464879483153628 0.0734646823334865 -0.0477344687623061 -0.0411130011274637 -0.0733982783333376 0.0477366112353467 -0.0663587189557504 0.0811523350860855 0.0297452016949165 -0.0360697284645488 -0.0354729011100138 -0.0101657749310697 0.0735718104967352 0.0376152375816895 -0.0356043058817862 0.0306166496546925 0.0338855678563904 0.0147851119934407 0.0619054369055867 -0.0290889317069766 0.0063278589389796 -0.0245706680296578 -0.0679305973549866 0.0786126508677369 0.0195368108733842 0.0278693467095261 -0.0147040148945228 -0.0277733308051554 0.0053242375544995 0.0583041865929720 0.0246901124569600 -0.0753888057317238 0.0153943828570666 -0.0019535878026117 0.0517386278374934 -0.0257142061054444 -0.0230881314291030 -0.0238628104568565 -0.0570307432746770 0.0158888728415481 0.0406260328586762 -0.0419545435888245 -0.0283484276649705 0.0076229753175095 0.0106584747478360 -0.0671799412931409 -0.0118865893258990 -0.0763820254059043 -0.0243016446541021 0.0253699169111697 -0.0600549405549517 0.0788794404974746 0.0495083554665869 -0.0264959682993502 0.0481994441316511 -0.0139268529393741 0.0628954008370155 0.0681316325494512 -0.0528668684959531 0.0788593651663892 0.0595838919193965 0.0526265973539075 0.0552452239518834 0.0015402179861819 0.0194912675890250 0.0048124956659822 0.0372378173158561 -0.0599650973505815 0.0096553777799915 -0.0530345836332151 -0.0344508663174219 0.0506261186236475 0.0117639164545895 -0.0622677362955686 -0.0628136565863709 0.0652605585990658 0.0511196000384259 0.0620072060379217 0.0155348272071438 -0.0483238765122138 0.0597729313063063 0.0357459239675021 -0.0621702139030766 0.0418289468173271 -0.0745127143173692 -0.0110564258702051 0.0279020616325724 -0.0356610144013614 -0.0415936660961899 0.0367754836614135 -0.0603218631835197 -0.0441309688247684 0.0004573473399029 -0.0017285220792075 -0.0702721781345332 0.0486817384630837 0.0374184464210686 0.0629720384518272 -0.0393169621508691 -0.0526965210113497 0.0752560487480344 0.0785151265097887 0.0056101868605851 -0.0081898996829527 -0.0015163132495779 0.0017269322705232 0.0354684444230342 0.0534469352680871 -0.0033455346225707 0.0433954371452224 -0.0528359190040835 -0.0271051145072948 -0.0618741273409696 -0.0348370164833168 0.0599819392318805 0.0288888796321712 0.0418670091441458 0.0436642506885013 -0.0643279652476014 -0.0197627439947488 0.0599651269359825 -0.0500441379664588 0.0648782051356310 -0.0652474792721961 -0.0516057916172267 -0.0491869003261494 0.0273589115237676 -0.0087739724459325 0.0786991040334248 0.0217809670593665 0.0668948380758547 0.0103448249224744 -0.0001778327779100 0.0178661356241678 -0.0108347219284285 -0.0255006730992973 -0.0201550557107357 0.0053746433751305 -0.0771860865417550 0.0532631609304242 -0.0757822983986497 -0.0491283680564805 -0.0645266511845073 -0.0340723874530516 0.0195261133705529 -0.0600763506427878 0.0514447070837079 0.0403609703784993 0.0317779475953679 0.0508170395179880 0.0405595737669223 0.0643455729899096 0.0281515325383298 -0.0435355995397504 -0.0116472814915871 0.0052425502957174 0.0039282727363118 0.0368225015424624 -0.0651402429892176 0.0372020857249937 -0.0363112884184263 -0.0672227989296285 0.0112410026645886 0.0505456575210492 -0.0592501319390082 0.0796632986518240 -0.0771448060917055 0.0366256122199112 0.0437595105193846 0.0059693578823179 0.0504853742982605 -0.0765388993930402 -0.0478853079732358 -0.0103189168381809 -0.0498459770314526 -0.0165429586075585 0.0498291808630139 0.0344934792541957 0.0664148961926211 0.0634681637675563 -0.0015224001164832 -0.0013369254524346 -0.0348469873724062 0.0571014644349893 0.0786680249579080 0.0769170242725791 0.0473531220828224 0.0424301289009813 -0.0590249551532473 -0.0142492823362789 -0.0145342534589582 0.0346911659305529 -0.0608400899843880 0.0609350390167400 0.0762227521645630 -0.0088325542995764 0.0554494017589456 -0.0765027870712211 -0.0065629437806947 -0.0067429181313517 0.0038901720268990 0.0592354902055269 0.0686520744936916 -0.0511650399899568 -0.0507906500238358 0.0071765679492463 0.0380767228495564 0.0156491896994690 0.0405456493327722 0.0823118294378253 0.0672991589644362 -0.0241839287388539 -0.0338775517080637 -0.0623048051173203 -0.0200563616969429 0.0566805277616009 -0.0770639006501648 0.0637659986906930 -0.0288721740028276 0.0203634632686480 -0.0483325065179959 -0.0395043451076192 0.0641502880617254 -0.0448237451153749 -0.0489868449826742 0.0380773478079432 0.0176626551252516 -0.0265624004281553 -0.0777410985573361 -0.0639382299086652 -0.0043404751704414 0.0100085173254273 0.0186936213145128 0.0353551785083880 -0.0160832567570023 -0.0048070198437557 -0.0454245186896189 0.0169047058869159 0.0308784683094391 0.0241776825272025 -0.0163630589319259 0.0179170945424560 -0.0074915631191868 0.0351614492463941 -0.0812065457019557 0.0167264880118242 0.0647944877852237 -0.0786905671598945 0.0126283393107517 0.0408313528990987 0.0123180900877609 -0.0376151345901603 0.0531137858915237 -0.0498973329664037 -0.0831925803793675 -0.0154449917670814 -0.0592926978983173 -0.0568694769159027 0.0397658857798584 -0.0231555518786521 0.0734117869631917 0.0395653821107530 -0.0736880433263092 -0.0460523307331847 0.0325119049829205 -0.0473095130866702 0.0349564186342338 0.0344007616672413 0.0784022452090585 -0.0253842887614034 -0.0283231229067607 0.0456396666065987 -0.0402792074497072 0.0241103249030348 0.0008471396935012 0.0057168640320984 -0.0043806631153381 -0.0654798580064347 -0.0691747784396141 -0.0590377408531440 0.0673850375419047 -0.0444771857794568 -0.0293506037064942 0.0321340738122202 -0.0812848880888409 0.0458514053719030 0.0149888903782890 -0.0466452890729226 0.0157436345413435 0.0360426512268844 0.0638544854187106 -0.0146871556009208 -0.0315203750397051 -0.0564704568709326 -0.0200798280701210 0.0701831714199164 0.0620574766399491 -0.0356021530567855 -0.0741577577837021 -0.0591826823262009 0.0467439376852038 -0.0421126638368097 -0.0005867481054857 0.0075706187128954 0.0392656473459687 0.0743606945064034 0.0134074820994142 -0.0405008894825490 0.0164235474938307 -0.0716923183160898 0.0599963610092957 0.0377827435624534 -0.0042485150585518 -0.0788978172877842 -0.0619015424928613 -0.0605077332381021 -0.0250490511601444 -0.0766499097451772 0.0011108711754677 0.0475675168503482 0.0076379313715092 -0.0372769532189941 0.0633444113214099 -0.0595226562261736 0.0412971690748388 -0.0395522825142422 0.0683590928519359 0.0594400589527160 -0.0348092734228330 -0.0334227733223908 0.0102834884323570 -0.0655669444132137 -0.0270739196534146 -0.0283619874530496 -0.0080315379593289 0.0731003103600909 -0.0205893652603641 -0.0147697132003760 0.0118230069749511 0.0596344460175227 -0.0448955463639035 0.0139479638931623 0.0666046108884155 0.0119970413911711 0.0757498833325192 -0.0270665645882442 -0.0120300449962357 0.0413514222089906 -0.0315058354648913 0.0157542168157922 0.0736545795169821 -0.0752186375849219 -0.0533081480099821 0.0627949881362141 0.0306788403464241 0.0483361310034355 0.0826483198282275 0.0241907346749265 -0.0737394405848160 -0.0378506721460770 -0.0485488424405076 -0.0640440137909949 0.0085835812916324 0.0267232838559802 0.0017691579977549 -0.0276490711059431 0.0099486906976902 -0.0601472852129290 -0.0284330940525165 0.0637885090691175 0.0450732712329961 0.0084261089927613 -0.0296307896737509 -0.0670563221537764 0.0367266676186380 0.0354848424929917 -0.0343130459989747 -0.0373222483085216 0.0326535743010770 -0.0101326318945969 -0.0765147440360884 -0.0409407042214084 0.0333728589043611 0.0802735487712334 -0.0572476747766132 -0.0118262841214520 -0.0184913622180387 0.0097320293899290 -0.0432390981187223 0.0063070244110079 -0.0604757949134881 -0.0087941375530787 -0.0318845789055799 0.0159196179173656 -0.0719489635039257 0.0526974794659598 -0.0753010953435290 0.0016244402598156 0.0607515987392123 -0.0653749081384288 0.0528642448701397 -0.0166135736395699 -0.0519214730449025 -0.0698878227028325 0.0102676880545602 -0.0668856023785612 -0.0523136059202785 -0.0197188869108454 -0.0630614090830025 -0.0181473759767815 0.0184472596775759 -0.0575984225487374 -0.0217521025742457 -0.0432296929769889 -0.0482913190274879 0.0018359935185783 0.0450884551134572 -0.0508949677565588 -0.0575793128046964 0.0605630858769859 -0.0507968219585491 0.0393300381581370 0.0039682089950305 -0.0264425793329386 0.0312430079661306 -0.0398524649449923 -0.0624266275065930 -0.0340441805758535 0.0393285315361986 -0.0088133781315886 -0.0756597709006084 -0.0482051420938202 0.0204572580035158 -0.0451657579441566 0.0730365808587861 0.0649711565086090 -0.0177717095055187 0.0221775741308603 0.0448530292427797 0.0411215218260090 -0.0186405833808907 -0.0505350811222299 -0.0741609693994166 0.0059797952704255 0.0391946991999794 -0.0251907919483117 -0.0711425238307468 -0.0367943271117551 0.0580586218290675 -0.0412253870517205 0.0125409217081840 0.0282722967783360 0.0456989177037218 -0.0677315121480454 -0.0671792725413245 -0.0666507917517963 -0.0705879284242487 0.0458587902757763 -0.0631522374999831 -0.0407690410801483 0.0586933480340062 -0.0672840724982327 0.0518662250176690 -0.0307636633846121 -0.0447423616563886 -0.0640296422033389 -0.0601700901660499 -0.0619710632435058 0.0646061699711992 -0.0086135873718376 0.0528184237357467 -0.0403822303111116 -0.0037157337314615 0.0622641717536769 -0.0264571905759547 -0.0122101089789380 -0.0700507732204229 0.0656558923649106 -0.0613104870865442 -0.0517447242881020 0.0180090725759960 0.0570220246002504 -0.0690458615069150 -0.0555971156516189 0.0648108277035200 0.0132156732227634 -0.0044339936369492 -0.0593042421655285 0.0762134147654212 -0.0184006795214800 0.0592703476317858 0.0228332555523225 -0.0501335442315396 -0.0335483867286930 -0.0668775913857209 0.0397812881887758 -0.0311750762623057 -0.0580636294994515 -0.0409451080156753 0.0223991503272876 0.0699111445617973 -0.0607599937457236 0.0734686959049377 0.0025726249129536 -0.0625334686676002 0.0179240118418322 -0.0042677781034630 0.0393208037324533 -0.0420353579840522 0.0121563524943670 -0.0153220569507007 -0.0729934947567840 -0.0400711648622990 -0.0347933166653245 -0.0363079183747263 0.0225992793004540 0.0202689221418802 0.0429122084669485 -0.0698297643703426 -0.0079697239380143 0.0475520206001882 0.0355075519326482 0.0648693760104998 -0.0698588163341309 0.0169610075931200 0.0226464090444937 0.0133610709374047 0.0711873496258987 0.0715119866819735 0.0433764305303604 -0.0665311737738018 -0.0569354951727880 0.0335615895943580 -0.0791189740804300 0.0449486957182845 0.0656715350874778 0.0344826559209135 0.0135340122948563 -0.0436129530798922 0.0699492278084828 0.0320285943837509 -0.0484506323668304 0.0739961379591809 0.0654116423196036 0.0110530577989748 -0.0077653551746578 0.0016574407684531 0.0067068007139196 -0.0222023242397498 0.0416727229997613 -0.0306276905607736 0.0701994037835326 0.0392529277148713 0.0400534911937104 -0.0675354386270454 -0.0067650644914486 0.0613320006295701 -0.0646454380936387 -0.0263957623265956 -0.0560704149101672 -0.0357217072173710 -0.0056536152858398 -0.0033718259000796 0.0520856049178613 -0.0399373683317877 -0.0650019680311884 0.0700020520042577 0.0422686898474967 0.0565155184146859 0.0040239353431353 0.0459134294342037 -0.0324839313146688 0.0099692288719815 0.0803608885509140 -0.0753012758290203 -0.0532641581808125 -0.0056910372251987 -0.0556668531376881 -0.0738598933546136 -0.0545609189851967 0.0242960744271928 0.0658684902994070 -0.0414730344908983 0.0318362369167304 -0.0040785418516204 -0.0302312978667635 0.0256858772641691 -0.0358496949070909 -0.0233732240570177 0.0273365722151477 0.0607778921294706 0.0125660232837129 -0.0310919678147990 0.0498153330936629 0.0342539272767863 0.0272403452121102 -0.0541795279985928 0.0657437369817197 -0.0252453353973803 0.0227908515743761 0.0282451673311125 -0.0663819807335672 0.0647542673839255 -0.0308396262967813 -0.0083670003868453 0.0677771326850425 -0.0479334866820961 -0.0450687883994084 -0.0562750142570844 0.0267123115419786 -0.0278298469008181 0.0435731917606887 0.0063341401638005 0.0754313468038261 0.0236565087893009 -0.0195870943305898 -0.0415874233389409 0.0159239773016757 0.0722925788190825 -0.0550210030717315 0.0239258129340839 0.0712097068539299 0.0566284905841888 0.0764485069795289 0.0608468168132061 0.0690017815954270 0.0613782235881531 0.0241056998039308 -0.0372689563526559 -0.0671645508153728 0.0078812270497617 0.0161119121095132 -0.0153592173051046 0.0098786867762201 0.0675549587879835 -0.0557089937004877 -0.0416442096968909 0.0278611496159772 0.0391200014528576 0.0258673740884440 0.0753111297946617 -0.0640789191534894 -0.0412892570471808 -0.0794554835807579 0.0026123750578077 0.0245405852224406 -0.0561567287872585 -0.0037254006253878 0.0786456969884883 -0.0556629194468093 -0.0467797346359135 0.0429083055703893 0.0035343407748489 0.0708526992214144 0.0363758117881211 0.0043002031955319 0.0745437830379024 0.0791111567586157 0.0208803916619430 -0.0679062551006260 -0.0435462404552267 0.0020840157051614 0.0284952897413132 0.0129717673040836 0.0147348196951853 -0.0471439812922349 -0.0232948087781338 -0.0403705849053890 0.0335246699347348 0.0610340212691695 -0.0561293409467798 -0.0255861724772923 -0.0737273664294570 0.0143976366715881 -0.0729490709723646 -0.0514511441942662 0.0382865614790447 0.0607049065363215 0.0194949972066161 -0.0218895961722464 -0.0464278160767731 -0.0263547292735820 -0.0379591322202103 -0.0158120761574695 0.0610669138906353 0.0364393317403519 0.0059789991773789 -0.0048794059898817 0.0169202070598111 0.0560629996607704 0.0678302703144279 -0.0254361702056756 -0.0787289656054973 -0.0585355325534715 0.0190026033317376 0.0459987703375649 -0.0109532076288823 0.0380039399457287 -0.0819435569044090 0.0130267695953230 0.0730743446731417 0.0619146865108113 -0.0501250282369046 0.0265495858742750 0.0253667882788849 0.0064177549076984 0.0703388732842920 -0.0342088949305482 -0.0501208715536186 -0.0744076711653201 -0.0654786212157157 -0.0421462507684426 0.0310939779206175 0.0405572319330382 0.0526386130312842 -0.0040624220767243 -0.0635759474707194 0.0151664898261472 0.0750716814381329 0.0656185041888586 -0.0024583762639940 0.0292841383789685 0.0736874386127266 -0.0144720915005447 -0.0573475544290853 -0.0794031606324894 0.0660808028979436 -0.0163468089448580 -0.0289205067854487 0.0289630735949067 0.0511618150846411 -0.0153240427417041 0.0175266299977236 -0.0159707201125779 0.0108656924002202 0.0039295362573661 -0.0645407078556912 0.0401970812718981 -0.0756936444920166 -0.0166085010285994 0.0226382600411402 -0.0631675791355544 0.0439399755187510 0.0414296585946994 -0.0689855583758778 0.0630350999163053 0.0637885089852215 0.0600427552433352 0.0479487324814691 -0.0157570819245446 -0.0559495968929545 0.0464669824155289 -0.0234026142174562 -0.0418426207003949 -0.0574331880145488 0.0359542883216953 0.0249778713703471 0.0645837391878826 -0.0311074695249371 -0.0086510343527502 -0.0350046970765427 0.0233029560404820 0.0547745926304854 -0.0440239127290638 0.0107849335389085 -0.0816551746963425 0.0333621596639718 -0.0439342245484605 0.0056717332189059 0.0037444141551080 0.0275058249448978 -0.0628011950483008 -0.0330006751949812 -0.0737742741801881 0.0578352435609591 0.0105586557630702 0.0603915476651352 -0.0446385312256347 0.0191568420401575 0.0333623251534282 0.0090199653703800 0.0290802399230010 -0.0611736604582152 0.0661227603910263 -0.0528177462355699 0.0411813431045712 -0.0201245423870462 -0.0009270479524483 -0.0199694451764553 -0.0192580886332484 -0.0538485153412334 -0.0395099371390977 0.0706344308872493 -0.0173325630746653 -0.0418345307385768 0.0241903782508053 0.0544944566808000 -0.0745469244565280 0.0275030397350049 -0.0026884602156291 -0.0641101958618506 -0.0743442163695952 0.0263025306609624 -0.0021968564306949 0.0110603712424872 -0.0189240457962701 -0.0068398804601901 0.0545960127325996 0.0703602374085341 -0.0568638683944707 0.0085612361306532 -0.0329042505142222 0.0781105945681000 0.0107895628346581 0.0311594359577845 -0.0690835800656991 0.0103951450371775 -0.0379678023883988 0.0261994053348401 -0.0719947033050872 -0.0106639160132280 -0.0274790380145394 -0.0804917444536955 0.0461509588351320 0.0373397650578508 0.0458656799060308 0.0539332745891364 -0.0070254415295576 -0.0314318565931637 -0.0441119062235306 -0.0284462640022651 -0.0087211308544523 -0.0631882103156143 0.0321922352780088 0.0637773169732755 0.0610609893413957 -0.0263015558172519 -0.0050016174232709 -0.0266824530990769 0.0666486400679884 -0.0709944001022276 0.0039909972903942 -0.0718082355701100 -0.0127047115706371 -0.0109786841890176 0.0317096861553331 0.0803408330453532 0.0596922403437939 0.0226081578198503 0.0336934287680705 -0.0458187319234992 -0.0437620801800709 0.0714135159673101 -0.0670964528195327 0.0183830921501950 0.0387867491942608 0.0462778352429334 -0.0699092332969059 -0.0446555810427766 -0.0718245806563136 0.0300526791985682 0.0778968122454638 0.0584330788850377 0.0231989256273878 0.0346256481291645 0.0035552978917203 0.0624800898312490 0.0215415449725497 -0.0064915508686245 0.0454153446637886 -0.0202871708235765 -0.0343448481084023 0.0282180325611829 -0.0354777975387069 0.0161726242337621 -0.0277274307616442 0.0503494821832734 0.0786963869029050 -0.0513368418566577 -0.0040085467577549 -0.0564409341651956 0.0682278944990385 0.0512180989331208 -0.0662212449212563 0.0385476584456307 0.0700326035210106 0.0069882003845746 -0.0712426263307662 -0.0404498603862468 0.0077630408829888 0.0779721217983754 0.0336807677932781 0.0656605250245237 0.0377302273602817 0.0665910434603424 -0.0427250303510638 
0.0362252606939434 -0.0507115955154905 0.0774215612724872 0.0821217010634356 0.0617900137108638 0.0100075922085590 0.0407567188134182 0.0668857419213406 0.0800932402964611 0.0428105749348846 0.0135638721043724 -0.0451186392588658 -0.0404951836927342 0.0248453446931206 -0.0455161818327082 0.0048310772769023 -0.0356288802526642 0.0150860803633144 -0.0639866572915206 -0.0022488743296617 0.0188021927456140 -0.0732495408888261 -0.0321383864806025 -0.0257058201504711 -0.0175280364148114 -0.0206949833075069 0.0574796951870388 0.0716228920016224 0.0888489236754503 0.0513932137675165 -0.0571394455923154 0.0370639885394015 -0.0148667923681985 0.0135040967097431 -0.0417441829880194 0.0388194124877053 0.0158034698680911 0.0276028203380654 0.0088489775446816 0.0645309883323590 -0.0012688123502944 0.0457881764645142 0.0023681503363505 0.0658130488384072 0.0603140907479501 -0.0253873819648947 -0.0111647931130276 -0.0561595321146709 -0.0605937891012394 0.0246164451700686 -0.0411974501500535 0.0710491316317559 -0.0477273168741971 -0.0590424695595754 -0.0687013484633382 0.0647530738821333 -0.0188434836408342 -0.0477150468653263 -0.0366927519877818 0.0466847603258900 0.0073223090556440 0.0338727824921421 0.0452617416616241 -0.0252529977385262 -0.0672986987668879 0.0163723355398099 0.0121692828091627 0.0846472214820186 0.0851755550716990 -0.0626800352187303 -0.0001459513246812 -0.0272588747468421 0.0526625304295658 0.0677136487433582 -0.0568053348843326 0.0359609407818300 0.0711663690300868 -0.0048311496882908 0.0017164283842972 -0.0625536751696531 0.0190859461934076 -0.0470087744236364 -0.0193865110656693 0.0365226456231716 -0.0268524401961907 0.0624285136135357 -0.0141376848253151 0.0233310113376371 0.0128460249045978 -0.0056134188178851 0.0721496916124924 0.0683066367583963 0.0145345323671898 -0.0217492561924642 0.0736867367037431 -0.0448454229358421 0.0634326237277512 0.0201833762588906 0.0087259965220178 -0.0445430820649433 -0.0129775383988053 0.0198317806933887 -0.0659276355166712 0.0582385735268519 0.0138344423840131 -0.0549603517818796 0.0571771930601619 0.0499871613420740 -0.0472690992694615 0.0206932661934422 0.0019625207599414 0.0640053758395833 0.0514796435412290 0.0484264519932646 -0.0605341829256105 -0.0005941723039359 -0.0155078408384284 -0.0277315911095978 0.0810126535659181 0.0894634938296981 -0.0093056957201917 0.0698086936933687 0.0086210898333221 -0.0444074126663789 0.0722791377140840 -0.0206024425473703 -0.0116499451815146 -0.0351678440671619 -0.0500381625891240 0.0120827321401861 0.0711699017870125 0.0305886411657267 0.0176319603122951 -0.0698050709994956 -0.0307540705160690 -0.0153848831953866 -0.0317638361061056 -0.0864440352894390 -0.0748402678734750 0.0438924734068993 0.0375291456157259 -0.0402831575541287 0.0424744416006082 0.0247017357559897 0.0067045932031154 0.0162310695933964 0.0692910694460012 0.0131815096813163 -0.0121757555495818 -0.0257627457719753 0.0174280133476169 -0.0566585404295003 0.0172713324391358 0.0755573598035564 0.0069405111461306 0.0391146007753562 0.0388690185260331 -0.0835230006828883 -0.0275966851641591 0.0611742159171973 0.0160167412264176 -0.0657579817555211 0.0776331843323256 -0.0033728019289328 0.0429307874007915 0.0239625706919923 -0.0517088476171265 -0.0451548975681843 -0.0461976113669689 -0.0235289164681525 -0.0748675988253004 -0.0672210515456619 -0.0440963660823860 0.0403628559246414 0.0372757150328430 0.0070090624062962 -0.0321339056976001 0.0677597623572423 -0.0545907637720775 0.0187608961369108 0.0600018994949252 0.0766650153508796 -0.0502748401366578 -0.0510996180177896 -0.0429882565752304 -0.0332473712534517 0.0594230337566006 -0.0585203941803970 -0.0711514829163941 -0.0744988073444969 0.0054321333557223 0.0037733284780808 -0.0082270408872099 -0.0013939679810744 -0.0006475048247203 0.0109758148841540 -0.0289618858783176 -0.0387835628815425 -0.0484550717582818 -0.0078765129244299 0.0100999594504420 -0.0778189173207053 0.0061782432604948 0.0113698731736048 0.0001905165304630 0.0511646900524434 -0.0167082326446494 -0.0074905191779617 0.0880810427280792 0.0774114692726896 0.0642956017523186 -0.0588885420130008 -0.0382755405503597 0.0068561095596393 0.0744811247555076 0.0148074155122595 -0.0305849149692755 0.0009885745941048 -0.0651252371404690 -0.0723849226686009 0.0376756902815369 0.0280119078238417 0.0199178470498898 0.0663618211634936 0.0158344353693669 0.0407957507302443 -0.0787461465606123 0.0265699368833682 -0.0001816986757672 -0.0185376382994585 -0.0349073160357649 0.0360406107193868 -0.0619228988661184 -0.0459179496271689 0.0054609816365295 0.0709508539069248 0.0706255147618689 -0.0462164820955359 -0.0503072297815395 0.0639106897002445 -0.0608084003784742 0.0731320719952097 -0.0107098809905546 -0.0489200011031542 0.0200385429670612 0.0077298567897470 -0.0121257001142349 -0.0759395566060286 0.0123356565873839 -0.0567811576063280 -0.0738284279847386 -0.0659279302318714 0.0689073460951426 0.0402375533500283 0.0388845904945169 0.0599324933080532 0.0260201092475259 -0.0384531812110816 -0.0386226370546913 0.0387252888819720 0.0078123599227576 0.0234863066270435 -0.0148505341118668 -0.0676950646114493 -0.0067638592175641 0.0137743893860208 0.0463000747059770 -0.0729566553110568 0.0512098239408450 -0.0671484649604170 0.0628300433291838 -0.0505028905447518 0.0368528350667437 0.0551427007721432 -0.0515852224760611 0.0455021171673439 -0.0367972556683756 -0.0578153605560442 0.0373787596529483 0.0425803058046790 0.0326862131932066 0.0463504690877949 -0.0395988075303016 0.0765774648637219 0.0065751263429540 -0.0519834610437705 -0.0410206432362325 -0.0016313904674325 0.0090508240080589 -0.0706249429542558 -0.0638760069449304 0.0022376312141219 -0.0361535537667930 -0.0042834406322195 0.0740369043912115 0.0715553978846010 -0.0461856086643844 -0.0703732317412820 0.0404459797630909 -0.0352540750938017 -0.0254485698608024 0.0685146843389884 -0.0346747048734068 -0.0360287181947630 -0.0795217990484932 0.0081299885929550 -0.0103036231181583 -0.0319264037838579 0.0619679851461445 0.0044649619811480 -0.0211668058304021 0.0398055567195940 0.0534627794588239 0.0825410003466930 0.0185842452204651 0.0245043471737077 0.0146165293302954 0.0059656708061886 0.0123569729691763 -0.0735452619083319 0.0327100925513915 -0.0641097278962821 0.0431728533032628 0.0081087702811910 0.0311974895498285 0.0778914252385800 0.0567473796550550 0.0047565751315753 -0.0476052456136758 0.0005268356618776 -0.0092394141463454 0.0375248821554900 -0.0303984531211680 0.0523008183658674 -0.0375790483061494 0.0437539000872102 -0.0473963597484479 0.0096558600382911 -0.0048163316985171 -0.0422497332736500 0.0343275178679253 -0.0468148923248173 -0.0381315011244159 -0.0632789828822093 -0.0366619899045824 0.0117565595853096 0.0136069717218308 0.0424759789427342 0.0315392630525698 -0.0416359398473749 -0.0338789290155505 0.0589572366133112 0.0059713462976283 0.0329403587700912 -0.0435015319185388 0.0836818747593116 0.0668582132449932 0.0792748375060089 -0.0717680960646513 -0.0147239783195874 -0.0036649648128177 -0.0269573444472287 -0.0553930469249648 0.0667907708321567 -0.0200018122358650 -0.0567389845699117 -0.0086548055523428 -0.0101920191495293 0.0116159336634178 -0.0213354916623180 0.0554803144961447 -0.0748909450950069 -0.0149972301437665 0.0234520693468577 0.0724117824056978 0.0669861065225995 -0.0655896745853478 -0.0082826848030737 -0.0573206651014644 0.0665531885509014 0.0506414267069331 0.0039189974455662 -0.0630589731524255 -0.0715556064238095 0.0691174839607096 -0.0210027577375010 0.0647950590447407 0.0621232798768835 0.0773120002388841 -0.0189217940780014 0.0317976610451729 0.0241948175681469 -0.0818903895567637 -0.0682389745627606 0.0264660552856634 -0.0663072722498260 0.0484296831748170 -0.0359413864137155 -0.0223830182625962 -0.0486485831221986 -0.0170169920497928 0.0355448378520156 0.0540457144880540 0.0453909932011193 0.0020660228228764 -0.0599848850578032 -0.0870354638228835 0.0588855825361784 -0.0463503347146633 -0.0242047984294971 0.0507415854237030 0.0054492184811605 0.0675682640958812 -0.0812912157982474 -0.0765931777025866 0.0100343155873932 -0.0397842741112316 0.0675796576047281 -0.0639061737976812 -0.0688891996894021 0.0513421499847201 0.0333086102599584 -0.0200138817933362 0.0562916598908177 0.0780382161674400 0.0013072805527018 -0.0084506271742333 -0.0680485006689394 0.0274307028902732 0.0675952504352834 0.0294035800594403 -0.0788242334761100 0.0842822018877863 0.0522944573312688 0.0207179048594426 0.0310808845492407 -0.0343731756418341 -0.0441109319257960 -0.0562231010750214 -0.0020207047818379 -0.0805770808473173 -0.0787870699920128 -0.0292206324237140 -0.0409201251014478 -0.0766559617582157 -0.0707928116680919 -0.0066519265567762 -0.0706764288479323 0.0461725667747483 0.0308427051668675 0.0378894904570683 0.0611062309765086 0.0270997541725540 -0.0186575835712072 0.0790633284382183 0.0122335446085575 -0.0531654172511839 -0.0580011556072473 -0.0236168623713634 0.0040789385684243 0.0270723876734260 0.0502753566329348 -0.0680511337223116 -0.0657853861840803 0.0670848704865405 -0.0043978766234271 -0.0214812962936831 -0.0167125647240814 -0.0623625152713348 -0.0663368891680358 -0.0595371561686831 -0.0529994228941201 0.0490508883346489 0.0438042181463726 0.0607290720787372 0.0545225525982182 0.0593352686077115 -0.0365783032346380 -0.0052348252343729 0.0096102899858442 -0.0661682891011521 0.0301667687047932 -0.0582203663330788 -0.0657090298065431 -0.0150737581988220 -0.0479489200377679 -0.0361594509440413 0.0592507136673869 0.0054121272260504 -0.0846522160953892 -0.0479060846578834 0.0570710382438781 0.0768246965323254 -0.0367732863567407 0.0725637804580846 0.0689544632556064 -0.0195223492973277 0.0517510685013209 -0.0432356110708294 -0.0499423533455157 0.0306864207628973 0.0379659278732265 -0.0808648645296407 0.0474578800017336 0.0337145689383814 0.0623692275712117 -0.0236878449990159 -0.0633759807168441 -0.0474137914126616 0.0237423260133933 0.0351045767075882 0.0731950499305733 0.0047647570175888 -0.0606739852241067 0.0080845696870371 -0.0217590442933320 -0.0776007485006524 -0.0439297373282172 -0.0282828848589593 0.0372501029985327 0.0183757918143825 0.0810378770346976 -0.0635106383222728 -0.0723726637188370 0.0658912233927059 0.0224692944000012 -0.0538991832330675 0.0113123949487812 -0.0485217975406104 -0.0597195468325131 0.0562131192778669 -0.0089017435789126 0.0252485997507209 -0.0744688019311516 0.0560694105700560 0.0375923417185588 0.0452886725720137 0.0285541590476159 -0.0495145943975865 -0.0120457530681543 0.0717181885244234 0.0015243615012539 0.0099951012135532 0.0533107570842322 0.0627238554231347 0.0025163397685830 0.0439897489745514 0.0731342954434943 0.0028577787984983 0.0062110414423100 0.0722050602368885 -0.0112561677817669 0.0174169149912676 0.0057871607508384 0.0133475484321991 0.0541141614652415 0.0137811197542283 -0.0097222660642643 0.0603755428363620 0.0393565946093918 0.0042952097698180 0.0518657797417328 -0.0443114735751488 -0.0781389268400953 0.0278568874992310 0.0557407634295784 -0.0218737801615855 -0.0342561313050440 0.0233230408017431 -0.0027369711974717 0.0772861088547819 0.0618224344467617 0.0568011661931161 0.0328506041287700 -0.0571359713100389 0.0695140438104319 -0.0014807480543678 -0.0123874824026750 -0.0493798639506760 -0.0473027866238328 -0.0244162774204454 -0.0627268940914546 0.0391333728561660 0.0385158362680018 -0.0749278906424535 0.0605381779909643 0.0528513502606979 0.0275597802566975 0.0459859389764628 0.0583175736635746 0.0410331510583185 -0.0039783189514076 -0.0514775413634296 -0.0165705224015632 -0.0237822737413710 0.0168247554904892 -0.0433046526576825 -0.0708443293979850 -0.0144365378524782 0.0116609439701474 0.0268897108222755 0.0212984305908040 0.0101872399487970 -0.0706166593217649 -0.0799666051309428 -0.0356116189326844 -0.0151531615340993 -0.0612246807227788 0.0160952758890643 -0.0014081195286397 0.0565670742064664 -0.0722216490422385 0.0821149220801493 0.0440602570370087 0.0316363227200352 0.0438451878811685 -0.0551605398332093 -0.0836131406407249 -0.0757247642290944 -0.0033928227584981 0.0051562413107042 0.0565308200697053 0.0523887846545380 0.0699308148256610 -0.0141717699974746 0.0349494564134955 -0.0608137477353104 -0.0615710482496522 -0.0447477147598904 0.0414242611999085 -0.0385314176151183 -0.0148389677382359 -0.0198025598848806 -0.0496797886367660 0.0473618878853289 0.0249336372671269 -0.0121755183759923 0.0289051592484564 0.0178005947540511 -0.0605073614146978 -0.0070138036121533 -0.0370569212806632 -0.0052740870652147 0.0055088805947200 0.0055396978801937 -0.0458552989490389 0.0202064629147022 0.0511365088280094 0.0584480953671580 -0.0053318207584332 -0.0021598508992543 -0.0125175606758961 -0.0468635089975995 -0.0422925200740276 -0.0439492896679986 -0.0294886472339571 0.0622239438591746 0.0587644516381142 0.0312093362354280 0.0089776140740352 -0.0702872124991323 0.0261383849742199 0.0621408815375698 -0.0409653250070357 -0.0053677965626409 0.0041660628798331 0.0372041765077433 0.0181555093228983 -0.0664370357389779 0.0159793024277806 -0.0671032188567905 0.0101093538117990 -0.0542019680157223 -0.0212188005778371 -0.0028257103573770 0.0440175014185933 -0.0477731853245025 -0.0296919588839829 -0.0232417195179409 0.0067881593187858 -0.0341281330218104 -0.0117916243604780 0.0715690435900162 -0.0896359577569115 0.0526740173560252 -0.0377841416894124 -0.0273318090197692 -0.0094568154553437 -0.0042512352662786 0.0087984343601549 -0.0376678212111008 0.0577786430273301 0.0847095727218292 -0.0596406349541936 0.0183477810347533 -0.0542058575446946 -0.0213174745440068 0.0601111951697694 -0.0248128917591165 -0.0560497240496777 -0.0329925547760371 0.0256785608409328 0.0063218447366581 0.0470172564050045 -0.0613214302685134 0.0143316671294839 0.0156196401156342 -0.0646611119152769 -0.0144693467165411 -0.0104786337960683 -0.0821069474682739 0.0410961337699052 -0.0308241918382217 -0.0042940645758303 -0.0436674370569077 -0.0580416971795889 -0.0051751775564422 0.0738189564264757 -0.0014300816870848 0.0803491940768350 0.0026653013892540 0.0827750439814392 -0.0745861686648920 0.0111779768355764 0.0440302622544977 -0.0324504939786569 -0.0406863135501503 0.0626394036613849 -0.0451847902189959 0.0174332623315184 0.0133965760275223 0.0558811591511058 0.0522908444961893 0.0280717528787288 -0.0644163184955688 0.0265420264418577 -0.0566692111225673 -0.0385213083768812 0.0632857172903624 -0.0656924631796495 0.0152246542343690 -0.0247765534070069 -0.0275095747950371 0.0259730643214346 -0.0162046223634956 0.0634017191707895 0.0352565008541337 -0.0352676714918348 -0.0592498591228661 0.0734954285012039 0.0485308446185189 -0.0719162213771723 0.0821717744550768 -0.0455120818240068 0.0365451686714453 -0.0487960114015762 -0.0701233073614281 0.0769006603333303 0.0171111273283159 0.0826018962044469 -0.0487734769688201 -0.0300790518080385 -0.0494554719084689 -0.0344519404307295 -0.0332482610445822 -0.0626362689340290 -0.0612781163570603 0.0229073454594073 -0.0700307394159445 -0.0770039014298729 -0.0575609840963473 -0.0022674124149268 -0.0416881007701491 -0.0088491972513143 -0.0667238346652710 0.0217463107044164 0.0320424253641174 0.0633201332256189 -0.0349282512855335 -0.0330898144503056 0.0404983667743943 -0.0337384337075381 -0.0310636123504598 -0.0071502629534646 -0.0028708761685331 -0.0637145186366815 -0.0661850575268245 0.0501799201828532 0.0105441622838570 0.0428380431203749 0.0702503346668768 0.0571158322870548 -0.0456403818166531 0.0248682211199279 -0.0605918029936123 0.0748711678100026 0.0690373943992634 -0.0261777998496772 0.0336324559243672 -0.0138828735653578 0.0387512024248386 -0.0739491265805979 0.0182348670789885 0.0762255805070119 0.0047277906386699 0.0039713136045858 0.0284164532380082 -0.0671871354049186 0.0193316214034145 0.0054697652326830 0.0785876537496014 0.0004981026520669 -0.0438225410785013 -0.0281879850977426 0.0619598050968883 -0.0684623113760836 -0.0394628723927930 0.0335953961839964 -0.0035133748702491 0.0510735275052898 -0.0588886177825825 0.0052315609153528 -0.0033961617083045 -0.0732292160379367 -0.0505857539144406 0.0444383354558525 -0.0109094891304387 -0.0388094371237054 0.0523184145220303 0.0701420974710471 -0.0215388969261448 0.0630572277365754 -0.0366844607264508 0.0216288854735680 -0.0398816445943485 -0.0321991207375866 -0.0551108086704540 0.0009076563681650 0.0296326328962620 0.0577800688416937 0.0473485085323563 -0.0541263216994008 0.0709390637721208 -0.0138589725918576 0.0311958250067596 -0.0557618826703422 -0.0476073419473008 0.0069870676704485 -0.0055544741726618 -0.0183623426461725 0.0731665285803045 -0.0699697225987296 0.0374138586973878 0.0232893667440201 0.0422027794965978 -0.0150974273062221 0.0325898595277767 0.0233461737085074 -0.0249687475551830 -0.0410185109004768 0.0313183530946613 -0.0054385463398633 0.0229768859358652 0.0726093459683785 0.0586695943161918 -0.0495758565667626 0.0161055411445584 -0.0419206532051486 0.0276183101618898 -0.0824545497411947 -0.0318872733386533 0.0671867467468395 0.0775227314863262 0.0265719378179701 -0.0522396840030879 -0.0184400730266696 0.0553635924104071 -0.0651874813469276 -0.0780349655109588 0.0031331226071096 -0.0612901288663954 0.0277661935749739 0.0628806505719024 0.0582569154493413 0.0014126948809059 0.0338611162853769 -0.0091662161240675 -0.0458714973381776 -0.0357910498674845 -0.0314541795676369 -0.0712060848550006 0.0395639567150608 -0.0791792327451111 0.0606065665464767 -0.0899026469000114 -0.0942653726312658 -0.0444106070982424 -0.0535016801761471 -0.0311260272698436 0.0194014012812031 
