2 30
0.3560569623213709 -0.7125362161110552 0.2013859249695297 -0.4641799618842861 0.3505813433804771 -0.6826202362893684 0.5501088001075739 0.0261858212602823 0.4834565120936350 0.1476778109914945 -0.4626672316543514 -0.8955608007424742 -0.5556157162728781 -0.4601850783495308 -0.2582718202311365 -0.4084387172654705 -0.3954208131715081 -0.2074876977243824 -0.6729203999121366 -0.4389218362196867 -0.6478163316862333 -0.4970107240255376 -0.3393446832371252 0.4002593814424651 -0.3911765439683073 0.5575955883702548 -0.5841218121214403 0.2058679190033520 -0.8057326965137308 0.7482957446565648 
-0.4141457170224896 0.9295170504276533 -0.5991322258160913 -0.8076095700518758 0.8864215465030829 0.3354829482484756 0.7900836644832103 -0.2190581268415634 -0.0780483377117405 -0.3461380552598203 0.4720682494659484 0.3452402742528052 0.3113438367883266 0.7025131868836687 0.4536757266760869 -0.2023081106088928 0.1629782251122235 -0.7162527715880626 0.4113988302021243 0.6584700976973550 0.3533237680516377 0.3103364308469472 -0.0752268061371098 -0.2894804705631321 0.4644058196859515 0.0598359788085288 -0.1829789102057118 0.6265929672053060 0.5274161977433178 0.6690107504746085 
